{"conv11.weight": [[[[-0.23070184886455536, 0.043246012181043625, -0.009896954521536827], [-0.11279178410768509, -0.4869736135005951, -0.364344984292984], [-0.1254151463508606, -0.3748515844345093, -0.221940815448761]]], [[[0.06573041528463364, -0.06944359838962555, 0.21178363263607025], [-0.15720069408416748, 0.18994903564453125, -0.06354624778032303], [0.4683835506439209, 0.24374322593212128, 0.04922487586736679]]], [[[-0.33307021856307983, -0.4401642978191376, 0.24864035844802856], [-0.16667163372039795, -0.12747280299663544, -0.3787204921245575], [0.23738425970077515, 0.31906720995903015, -0.2544917166233063]]], [[[-0.031197132542729378, 0.18402555584907532, 0.1704373061656952], [-0.2514711916446686, 0.120558962225914, 0.2858775556087494], [0.27532824873924255, 0.03948303684592247, 0.1270068883895874]]], [[[-0.4162365198135376, 0.02924077957868576, 0.004083049483597279], [0.09652121365070343, 0.0018866779282689095, 0.39528578519821167], [0.013618533499538898, -0.0734337791800499, 0.4404991567134857]]], [[[-0.15073318779468536, -0.1792670637369156, -0.19043053686618805], [-0.05055496096611023, -0.23929637670516968, 0.07866037636995316], [0.2428659051656723, -0.207779660820961, -0.11557268351316452]]]], "conv11.bias": [-0.4541912376880646, 0.07990756630897522, 0.25032860040664673, 0.0021930793300271034, 0.2487402856349945, -0.1158948466181755], "conv12.weight": [[[[-0.16533076763153076, 0.036713164299726486, 0.3199750483036041], [0.08240536600351334, -0.19051741063594818, 0.337791383266449], [0.3282241225242615, 0.06768472492694855, -0.2486698180437088]]], [[[-0.17441169917583466, 0.11288677901029587, -0.15987572073936462], [0.27478376030921936, 0.2734124958515167, -0.30148059129714966], [0.4008787274360657, 0.004438979551196098, 0.03893483057618141]]], [[[0.3579392731189728, 0.011510473676025867, 0.30557364225387573], [0.036041371524333954, 0.46032994985580444, 0.03836280107498169], [0.012434245087206364, 0.05351627990603447, -0.08295100182294846]]], [[[0.21644818782806396, -0.345383882522583, 0.22293886542320251], [0.2949877083301544, 0.3044738173484802, 0.16639763116836548], [-0.41467002034187317, 0.14411668479442596, 0.19283777475357056]]], [[[-0.6455613970756531, 0.03454737737774849, 0.38627997040748596], [-0.08915134519338608, 0.0419297069311142, 0.46920961141586304], [-0.09039612114429474, 0.20322798192501068, 0.06618723273277283]]], [[[-0.035769034177064896, 0.019067026674747467, 0.1823740005493164], [-0.025147954002022743, 0.30820927023887634, 0.2554275691509247], [0.049133770167827606, 0.08603228628635406, -0.11692415177822113]]]], "conv12.bias": [-0.24353043735027313, 0.139238640666008, 0.5195920467376709, 0.12818339467048645, -0.03670421987771988, 0.3213624954223633], "conv21.weight": [[[[0.06245695799589157, 0.028251634910702705, -0.026952439919114113, 0.06843817979097366], [0.15363484621047974, -0.005195514764636755, -0.10488367825746536, -0.02771230787038803], [0.014451557770371437, -0.06635183095932007, 0.006144173443317413, -0.0763937458395958], [-0.1273537278175354, -0.02926088683307171, -0.052643753588199615, -0.023770160973072052]], [[-0.10851649940013885, -0.07474467158317566, -0.06377207487821579, 0.06011352315545082], [-0.15521521866321564, -0.12156526744365692, 0.05525633320212364, -0.06488902866840363], [0.12939798831939697, 0.11837992072105408, 0.16018451750278473, 0.007863011211156845], [0.12616269290447235, 0.20716992020606995, 0.16091613471508026, -0.08321122080087662]], [[0.0850922018289566, 0.11974336951971054, -0.05567260459065437, -0.13339999318122864], [0.07314689457416534, 0.10330361127853394, 0.14956055581569672, 0.10670018196105957], [0.04485279694199562, 0.10896703600883484, 0.034969475120306015, 0.12207304686307907], [0.0654725655913353, -0.11582151055335999, -0.07799912989139557, 0.048993974924087524]], [[-0.06904858350753784, 0.002315287012606859, 0.033520109951496124, 0.01564481295645237], [-0.12203896790742874, -0.14171063899993896, -0.05133155360817909, -0.00961378961801529], [0.01886940188705921, 0.011475388891994953, -0.07397744059562683, -0.027489179745316505], [0.0650046244263649, 0.08256750553846359, -0.03996714577078819, -0.11149288713932037]], [[-0.13396690785884857, -0.017445379868149757, 0.0013441041810438037, 0.01646498590707779], [0.005625969264656305, -0.11534508317708969, 0.053879767656326294, -0.0720258429646492], [0.06469806283712387, 0.06330221146345139, -0.028390144929289818, -0.0007140716770663857], [0.17169447243213654, 0.10647228360176086, -0.13638776540756226, -0.03565467894077301]], [[0.10636160522699356, -0.03389531373977661, 0.02282869815826416, -0.06818515807390213], [0.10343040525913239, 0.10925433784723282, -0.01233319565653801, -0.036202188581228256], [-0.0516328401863575, -0.0041335695423185825, 0.056539591401815414, 0.09496230632066727], [-0.14050628244876862, -0.046790916472673416, -0.04673568904399872, 0.13821153342723846]]], [[[-0.06493726372718811, -0.023000696673989296, -0.13233137130737305, 0.0069814459420740604], [-0.20591185986995697, -0.14125482738018036, -0.05673127993941307, 0.07716110348701477], [-0.13066360354423523, -0.1007164940237999, 0.08435313403606415, 0.1558147519826889], [-0.007427684497088194, 0.0666981041431427, 0.1141865998506546, 0.23718014359474182]], [[0.1250787228345871, 0.06149567291140556, -0.021419066935777664, -0.1335427314043045], [0.12674812972545624, 0.050191547721624374, -0.08018696308135986, -0.15046125650405884], [0.27751460671424866, 0.02684592828154564, -0.19202382862567902, -0.24571260809898376], [0.0914195105433464, -0.024151034653186798, -0.1346164345741272, -0.11623977869749069]], [[0.010640094988048077, -0.07310057431459427, -0.014931820333003998, -0.06904277205467224], [-0.21402864158153534, -0.14812810719013214, 0.10356595367193222, 0.10911089926958084], [-0.25192326307296753, -0.034570418298244476, 0.12973861396312714, 0.19470641016960144], [-0.22667455673217773, -0.046147238463163376, 0.019814325496554375, 0.1997992992401123]], [[0.08543779700994492, 0.1343960464000702, -0.018623685464262962, 0.003991917707026005], [0.1292715072631836, 0.1231769323348999, -0.02851879969239235, -0.18048575520515442], [0.05485682934522629, 0.09036656469106674, -0.20096909999847412, -0.06654912233352661], [0.10706932842731476, 0.06875601410865784, -0.09699756652116776, -0.17728222906589508]], [[0.10931410640478134, -0.0070975348353385925, 0.11274028569459915, 0.004608312156051397], [0.0987139493227005, -0.053625259548425674, 0.033851925283670425, -0.11615508049726486], [-0.032762885093688965, -0.20940034091472626, -0.060366008430719376, -0.021334415301680565], [-0.259743332862854, -0.2771911025047302, -0.13012894988059998, -0.2837028205394745]], [[0.013294911943376064, 0.050504639744758606, -0.020688166841864586, 0.017971500754356384], [-0.09058001637458801, 0.04420939087867737, 0.11666599661111832, 0.1271006017923355], [-0.13277794420719147, 0.05725216120481491, 0.11668554693460464, 0.17135737836360931], [-0.1040090024471283, 0.04231226071715355, 0.12804554402828217, 0.2046099603176117]]], [[[0.06880344450473785, 0.11769688129425049, 0.11737529933452606, 0.16725261509418488], [0.09825079888105392, 0.01611337438225746, -0.021735481917858124, 0.0843442901968956], [0.12897777557373047, 0.11893746256828308, -0.06621736288070679, -0.09450796246528625], [0.10434776544570923, 0.09015070647001266, 0.043006740510463715, -0.1894305795431137]], [[0.06036669760942459, -0.01769053004682064, -0.0986977219581604, 0.0020557972602546215], [-0.08119336515665054, -0.09306994080543518, 0.08744661509990692, 0.0721571072936058], [-0.30261746048927307, -0.08083866536617279, 0.13383150100708008, 0.11428165435791016], [-0.21991375088691711, -0.08344872295856476, -0.024866467341780663, 0.12447015196084976]], [[-0.14475013315677643, -0.04527181386947632, 0.0419999435544014, 0.36896440386772156], [-0.10214409977197647, -0.20913957059383392, -0.15524348616600037, -0.054032161831855774], [-0.011999187991023064, -0.1942775696516037, -0.17666558921337128, -0.23322905600070953], [0.10034029185771942, -0.007833724841475487, -0.19786952435970306, -0.432304710149765]], [[0.09747921675443649, 0.0007798289880156517, -0.016980400308966637, -0.20230931043624878], [0.07680248469114304, 0.11338663846254349, 0.16973596811294556, 0.012427079491317272], [-0.10834263265132904, 0.028484953567385674, 0.1792578250169754, 0.13354673981666565], [-0.07060457020998001, -0.03473562374711037, 0.1357208490371704, 0.18275907635688782]], [[-0.17976030707359314, -0.2540862560272217, -0.17622125148773193, -0.17670078575611115], [-0.07640563696622849, -0.020916864275932312, -0.1825895458459854, 0.0560213103890419], [-0.15164563059806824, -0.04379548504948616, 0.05809466168284416, 0.09524539858102798], [-0.22677811980247498, 0.15716227889060974, 0.14914575219154358, -0.06977266818284988]], [[0.09521045535802841, 0.10359238088130951, 0.009760817512869835, 0.0883369967341423], [0.09058424830436707, -0.07725061476230621, -0.08099588751792908, -0.07129421830177307], [0.0295871589332819, -0.033048223704099655, -0.11975773423910141, -0.12926527857780457], [0.08936671167612076, -0.09416023641824722, -0.21752044558525085, -0.08777188509702682]]], [[[-0.09233248233795166, -0.1325611025094986, -0.05623115971684456, 0.04201972112059593], [0.07839680463075638, -0.09380543977022171, 0.05123797059059143, -0.04139763489365578], [0.10126329958438873, -0.02855457365512848, -0.051378101110458374, 0.05205237865447998], [0.00015074883413035423, -0.0710429847240448, 0.061432670801877975, 0.037812598049640656]], [[0.0383300855755806, -0.00551920710131526, 0.06695885211229324, 0.07007409632205963], [-0.06052178889513016, 0.0731789767742157, -0.042643945664167404, -0.05152693763375282], [-0.10834972560405731, 0.05545523390173912, -0.042723603546619415, 0.03496551141142845], [-0.1853819042444229, -0.07548962533473969, 0.007470021490007639, -0.18181316554546356]], [[0.03869360312819481, -0.03379647806286812, 0.08412832766771317, 4.0812912629917264e-05], [0.006578303407877684, 0.06930030882358551, 0.017759131267666817, 0.08472208678722382], [0.06692355871200562, 0.06022713705897331, 0.1179056316614151, -0.014160784892737865], [0.05811209976673126, -0.10821282863616943, -0.07683335244655609, -0.014268169179558754]], [[0.07472752779722214, 0.0652511715888977, 0.021128829568624496, 0.05860331654548645], [-0.04973377659916878, 0.12025106698274612, 0.02720487117767334, -0.0914234146475792], [-0.0438828207552433, 0.12785834074020386, -0.07734040170907974, -0.1334141343832016], [-0.11528272926807404, 0.025809573009610176, -0.05092329531908035, -0.14693520963191986]], [[0.03192893788218498, -0.04727025702595711, 0.0035606289748102427, 0.0395333468914032], [0.07128943502902985, -0.04827433079481125, 0.08337711542844772, -0.1358509659767151], [0.2024039328098297, 0.056483302265405655, -0.04369378089904785, -0.258100688457489], [0.20794245600700378, 0.14853066205978394, 0.016554152593016624, -0.17056217789649963]], [[0.062107473611831665, -0.03417490795254707, -0.017843980342149734, -0.02786298841238022], [0.003845175029709935, 0.06093183159828186, -0.11410661041736603, -0.0351330004632473], [-0.03274710103869438, -0.10766072571277618, -0.0865495577454567, 0.03691945970058441], [0.001654718304052949, -0.008365124464035034, 0.11158114671707153, 0.02092386968433857]]], [[[0.18525001406669617, -0.1129879355430603, -0.08002730458974838, 0.012003565207123756], [0.10332383960485458, -0.1608043909072876, -0.06837038695812225, 0.13216498494148254], [-0.14821040630340576, -0.175001859664917, -0.046933311969041824, 0.10819514840841293], [-0.08456581830978394, 0.058414001017808914, 0.11721358448266983, 0.139179527759552]], [[-0.11471370607614517, -0.047493454068899155, -0.01423485018312931, 0.12352730333805084], [0.009015393443405628, -0.0830594003200531, 0.12331175804138184, -0.02245578169822693], [0.007280869875103235, 0.011564072221517563, 0.11055999994277954, -0.14720985293388367], [0.04791489616036415, 0.06153062358498573, -0.045960430055856705, 0.015176615677773952]], [[0.19203107059001923, 0.05082860589027405, 0.0870606079697609, 0.18728533387184143], [0.15582337975502014, 0.12177731841802597, -0.02316942624747753, 0.19412000477313995], [0.18850958347320557, 0.019195012748241425, -0.013650400564074516, 0.09592309594154358], [0.12839671969413757, 0.11097464710474014, 0.046694349497556686, 0.12411396950483322]], [[-0.14567704498767853, 0.03620199114084244, 0.028302036225795746, 0.014054165221750736], [0.07632621377706528, 0.063484326004982, 0.059373702853918076, -0.1707870215177536], [0.05094430595636368, 0.01638093963265419, -0.14284402132034302, -0.11776045709848404], [0.12094374001026154, 0.06733690947294235, -0.11053996533155441, -0.06696653366088867]], [[0.0722552090883255, 0.15601317584514618, 0.29040607810020447, 0.005009835120290518], [0.2098822295665741, 0.23881542682647705, 0.1051575168967247, -0.2663933038711548], [0.18646642565727234, 0.3096092641353607, 0.1899849772453308, -0.1801466941833496], [0.3906633257865906, 0.1677427589893341, 0.0574193112552166, -0.13652019202709198]], [[0.11575888842344284, -0.04760495573282242, -0.051836054772138596, 0.0668158009648323], [0.08273129910230637, 0.03999445587396622, -0.11819254606962204, 0.03328675031661987], [0.06923700124025345, -0.14939899742603302, 0.06888018548488617, 0.04084158316254616], [-0.07917146384716034, -0.06475123763084412, 0.005108256824314594, 0.04016752541065216]]], [[[-0.09852534532546997, 0.02544906921684742, -0.04462786391377449, -0.2038760930299759], [0.061269957572221756, 0.03006148338317871, -0.12291616946458817, -0.15042002499103546], [-0.039637625217437744, -0.08148302882909775, -0.05865151062607765, -0.11017722636461258], [-0.10281164199113846, -0.10480131953954697, -0.025450389832258224, 0.11766007542610168]], [[-0.09950569272041321, 0.025546981021761894, -0.08879044651985168, 0.08252297341823578], [-0.0724942684173584, -0.0905531495809555, 0.03233854100108147, -0.05510053411126137], [0.15228024125099182, 0.06580443680286407, 0.1300066113471985, 0.0068841963075101376], [0.05873643606901169, 0.053512830287218094, -0.07244058698415756, 0.03037298284471035]], [[-0.10817953944206238, -0.12104173749685287, -0.051054295152425766, -0.06118237227201462], [-0.016152117401361465, 0.09376819431781769, 0.05593730881810188, -0.008258430287241936], [0.21000917255878448, -0.0016696391394361854, 0.1855446994304657, 0.1920936405658722], [0.09675469994544983, 0.06144417077302933, 0.08844110369682312, 0.1962507665157318]], [[0.13469742238521576, -0.04195437580347061, 0.007881239987909794, 0.2207186371088028], [-0.05128832533955574, -0.029967175796628, 0.036144230514764786, -0.018439000472426414], [-0.05281015485525131, 0.0262761227786541, -0.04596811532974243, -0.010530760511755943], [-8.811376028461382e-05, 0.11765503138303757, -0.12313529849052429, -0.12136637419462204]], [[-0.036479488015174866, 0.02994719333946705, -0.002213304629549384, 0.1560491919517517], [0.06923716515302658, -0.052035141736269, 0.146870955824852, 0.2586616575717926], [0.04087333753705025, 0.0585000142455101, 0.016296379268169403, -0.1456657201051712], [0.14346078038215637, 0.014918570406734943, -0.11789146810770035, -0.16150237619876862]], [[0.0062112691812217236, -0.05911122262477875, -0.0034351509530097246, -0.1907835453748703], [-0.07978808134794235, 0.08586584776639938, 0.05329245328903198, -0.059705883264541626], [-0.10115542262792587, -0.10693517327308655, 0.061671361327171326, -0.01766464114189148], [-0.07609881460666656, -0.10171914845705032, -0.009838990867137909, 0.06408187001943588]]], [[[-0.07901890575885773, -0.16021443903446198, -0.04659810662269592, -0.15342269837856293], [-0.0266722459346056, -0.11321105062961578, 0.0351010225713253, -0.07861310243606567], [0.11299289017915726, -0.02336295321583748, -0.1424366533756256, -0.17013928294181824], [-0.023636499419808388, 0.022220244631171227, -0.0775594413280487, -0.15158173441886902]], [[-0.08952756226062775, -0.0722145065665245, -0.08653567731380463, 0.0009140881011262536], [-0.005440117325633764, 0.05836324393749237, -0.06090865284204483, 0.0026363953948020935], [-0.017511790618300438, 0.1559600979089737, -0.026962414383888245, -0.041930682957172394], [0.07069738209247589, -0.02185392566025257, 0.09818311035633087, 0.11834705621004105]], [[0.08288733661174774, 0.020173251628875732, 0.02217533066868782, -0.14251507818698883], [-0.028990846127271652, -0.02106625773012638, -0.013654449954628944, -0.0756111815571785], [-0.06894651800394058, 0.01516165491193533, 0.10095234215259552, 0.1323614865541458], [-0.20522435009479523, -0.18212977051734924, 0.07218917459249496, 0.04141419380903244]], [[-0.06972493976354599, -0.09181348234415054, -0.09256485849618912, 0.05399691313505173], [0.02312544733285904, -0.11635886132717133, -0.1298082321882248, 0.024351270869374275], [0.10754435509443283, 0.010623990558087826, 0.07659487426280975, 0.07816702127456665], [0.05981636419892311, 0.16132134199142456, 0.06649608910083771, 0.004065866582095623]], [[-0.10511671751737595, -0.12504516541957855, -0.06995288282632828, -3.0832787160761654e-05], [-0.08466474711894989, -0.11839239299297333, -0.036102134734392166, -0.06995637714862823], [0.02624034695327282, -0.15193481743335724, -0.10818209499120712, 0.04730776324868202], [0.11508817970752716, 0.09200385957956314, 0.015190375037491322, 0.06355175375938416]], [[0.11596067994832993, 0.09334330260753632, 0.004836845211684704, -0.16091272234916687], [0.010673181153833866, 0.11081556975841522, -0.03530539572238922, 0.08213049173355103], [0.034231577068567276, 0.07919525355100632, 0.12962821125984192, 0.118744395673275], [-0.1224394291639328, -0.030707309022545815, -0.0981573760509491, -0.04294099658727646]]], [[[0.03868753835558891, -0.09739842265844345, -0.05119053274393082, -0.02470020391047001], [0.06955498456954956, 0.015514308586716652, 0.00027301142108626664, 0.09452012181282043], [0.053393613547086716, 0.007227325811982155, 0.051791753619909286, 0.025986917316913605], [0.0789579525589943, -0.11179782450199127, -0.0813223123550415, 0.06209187209606171]], [[-0.13900068402290344, -0.036798927932977676, 0.11134441941976547, 0.1305771768093109], [-0.03397547826170921, 0.09960278868675232, 0.08152677118778229, -0.0007534833275713027], [-0.005200468935072422, 0.11194197088479996, 0.037033431231975555, -0.05047310143709183], [-0.09052245318889618, 0.010362385772168636, 0.05548004433512688, 0.09845329821109772]], [[-0.012532005086541176, -0.03412237763404846, -0.046463482081890106, 0.07447243481874466], [0.16132600605487823, 0.024346215650439262, -0.0148741714656353, 0.07674515247344971], [0.06444647908210754, 0.005713564343750477, -0.0911075696349144, -0.07228782027959824], [0.13062918186187744, 0.06074957549571991, 0.051562339067459106, 0.024375226348638535]], [[-0.009035132825374603, 0.028131946921348572, -0.06182094290852547, -0.059460945427417755], [-0.05676480010151863, 0.1073220819234848, 0.050644733011722565, -0.04206952080130577], [0.0850893184542656, 0.1094960868358612, 0.08773944526910782, -0.007632434368133545], [0.08627086132764816, -0.0799199640750885, -0.06527120620012283, 0.04321064427495003]], [[0.05211181193590164, 0.03008328005671501, -0.013990910723805428, 0.1417078971862793], [0.013028507120907307, -0.027869805693626404, 0.06873034685850143, 0.11010821908712387], [-0.0046900236047804356, -0.0001940858201123774, -0.03266560658812523, -0.02649077959358692], [0.05034371465444565, -0.021105311810970306, 0.00638573570176959, 0.03780806437134743]], [[0.10434826463460922, -0.10804125666618347, -0.010654757730662823, -0.06529532372951508], [-0.0112595334649086, -0.08304683119058609, -0.014286248944699764, -0.10989701002836227], [0.057596080005168915, -0.08085615932941437, -0.10137102752923965, -0.03687923774123192], [0.046374671161174774, -0.06368713080883026, -0.10967965424060822, -0.10531293600797653]]], [[[0.04214552417397499, 0.0035124721471220255, -0.1776459962129593, -0.23640663921833038], [0.10476184636354446, -0.028397399932146072, -0.13725684583187103, -0.06273959577083588], [0.12088067084550858, 0.09901835024356842, -0.09334500133991241, 0.05595089867711067], [0.0900951400399208, 0.02551681362092495, 0.014172349125146866, 0.08603845536708832]], [[-0.2025976926088333, -0.1044352799654007, 0.09830453246831894, 0.15028534829616547], [-0.2096337527036667, -0.11362642794847488, -0.051435746252536774, 0.07476340979337692], [-0.09361834079027176, -0.08937431871891022, 0.07603757828474045, -0.0025815453846007586], [-0.18425481021404266, 0.00394698791205883, 0.03855976089835167, -0.014598118141293526]], [[-0.18028779327869415, -0.16389167308807373, -0.2353937327861786, -0.226674884557724], [-0.05321172624826431, -0.11691119521856308, -0.11368017643690109, -0.15867353975772858], [0.27188777923583984, 0.035283997654914856, 0.07411503046751022, 0.05603804066777229], [0.21896237134933472, 0.2026718109846115, 0.1475892961025238, 0.05247990041971207]], [[-0.024966483935713768, 0.16775713860988617, 0.17991745471954346, 0.04193251579999924], [-0.11902971565723419, 0.13539807498455048, 0.0731160044670105, 0.10515491664409637], [-0.17100650072097778, -0.03786817938089371, 0.05140238627791405, -0.05350804701447487], [-0.026556462049484253, -0.03453173488378525, 0.0785185769200325, 0.02710527926683426]], [[0.14127615094184875, 0.09932095557451248, 0.1344766467809677, 0.2694685459136963], [0.10723011195659637, 0.09534468501806259, 0.07177574187517166, 0.13337107002735138], [0.042475562542676926, 0.0668758973479271, -0.037375349551439285, -0.03398144245147705], [0.001767341629602015, 0.013816080056130886, 0.03572845831513405, -0.1945895105600357]], [[-0.06855170428752899, -0.03057750128209591, -0.16203564405441284, -0.2595165967941284], [-0.0398055762052536, -0.08453426510095596, -0.1738017201423645, -0.012085708789527416], [0.1641843467950821, 0.07798760384321213, 0.04992285370826721, -0.015723174437880516], [0.03544692322611809, 0.01997152529656887, -0.04639760032296181, 0.13272039592266083]]], [[[0.03842310979962349, 0.11465112119913101, -0.002061698120087385, -0.02760373428463936], [0.03830176219344139, 0.19015908241271973, -0.020468201488256454, -0.13184763491153717], [0.008169829845428467, 0.06795844435691833, -0.06613863259553909, -0.20371130108833313], [0.0720544084906578, 0.03676793351769447, -0.16645941138267517, -0.26719269156455994]], [[-0.20245717465877533, -0.24497373402118683, -0.04140051454305649, -0.13374075293540955], [-0.19751079380512238, -0.2376249134540558, -0.1328684240579605, -0.05522683262825012], [-0.023413192480802536, -0.030620668083429337, 0.14319460093975067, 0.12083061784505844], [-0.05354310944676399, -0.003399651264771819, -0.05131238326430321, 0.07926911115646362]], [[0.20127741992473602, -0.13242365419864655, -0.22527283430099487, -0.10228180885314941], [0.059993281960487366, 0.10704372823238373, -0.0904989242553711, -0.127197265625], [0.15582911670207977, 0.17985530197620392, 0.061689697206020355, -0.30343255400657654], [0.06257419288158417, 0.15396831929683685, -0.030606143176555634, -0.2999193072319031]], [[-0.09896270185709, -0.09883654862642288, -0.08711449801921844, -0.03708438202738762], [-0.23409923911094666, -0.17447948455810547, -0.09754463285207748, 0.09066103398799896], [-0.16299563646316528, -0.07885724306106567, 0.08637616038322449, 0.1718498319387436], [-0.04657171294093132, -0.06135838106274605, 0.06054791063070297, 0.07678823918104172]], [[-0.035771287977695465, -0.02034655585885048, 0.0019198491936549544, -0.18236328661441803], [-0.22267228364944458, -0.12233228981494904, 0.028217727318406105, 0.1546991765499115], [-0.23908570408821106, -0.16631150245666504, 0.046928226947784424, 0.29642629623413086], [-0.061967235058546066, -0.015060225501656532, 0.15334710478782654, 0.3624493181705475]], [[0.0995122566819191, 0.1689147800207138, 0.01341889426112175, 0.022200895473361015], [0.06886076927185059, 0.14833751320838928, 0.13353577256202698, -0.06644396483898163], [0.2152988612651825, 0.21709588170051575, 0.02380797266960144, -0.14034561812877655], [0.14220614731311798, 0.15048350393772125, -0.1061687245965004, -0.09391859918832779]]], [[[0.0016878023743629456, 0.03987028822302818, -0.01808527484536171, 0.02984822541475296], [0.017179373651742935, -0.01977064460515976, 0.06103628873825073, 0.049026746302843094], [-0.10225144028663635, -0.19036170840263367, -0.0863637700676918, -0.06184529885649681], [-0.10654685646295547, -0.12320329993963242, -0.12084530293941498, -0.028089025989174843]], [[0.10755565762519836, 0.10633719712495804, 0.06024596095085144, -0.004423408769071102], [-0.04284384101629257, 0.041042741388082504, 0.00697899516671896, -0.06001098081469536], [0.012477154843509197, 0.02988937310874462, 0.13426566123962402, 0.0031395573168992996], [0.17341996729373932, 0.1828107386827469, -0.02438541315495968, 0.006802838761359453]], [[0.02884010598063469, -0.014480100013315678, -0.005923733580857515, -0.04990091919898987], [-0.12493494898080826, -0.14368465542793274, 0.018287580460309982, 0.025865698233246803], [-0.15417321026325226, 0.0433349572122097, 0.011755465529859066, -0.04422645643353462], [-0.11995525658130646, -0.05472470819950104, 0.048156119883060455, 0.13229672610759735]], [[0.03311491385102272, -0.040233638137578964, 0.09196721762418747, 0.06334397196769714], [0.05312985181808472, -0.06723824888467789, 0.016518620774149895, -0.12586702406406403], [0.10174146294593811, 0.07153279334306717, -0.051970671862363815, -0.044062539935112], [0.07881419360637665, -0.04187648743391037, 0.004441756289452314, -0.011649376712739468]], [[0.0680890679359436, -0.07485134899616241, -0.24545617401599884, -0.12300970405340195], [0.038489069789648056, -0.20972244441509247, -0.10382705926895142, -0.1912481188774109], [-0.039719682186841965, -0.2225015014410019, -0.22114397585391998, -0.33156895637512207], [-0.011073051020503044, -0.18528315424919128, -0.24579483270645142, -0.20820266008377075]], [[0.008491274900734425, -0.02116447687149048, 0.028022782877087593, 0.10922329872846603], [-0.02258080244064331, -0.006604449823498726, 0.12668392062187195, -0.04611799120903015], [-0.10268435627222061, -0.0011697865556925535, 0.1309869885444641, 0.1531696319580078], [0.019455060362815857, 0.07330331951379776, 0.14958660304546356, 0.17995837330818176]]], [[[-0.00017055451462510973, 0.03540785238146782, -0.09995803236961365, -0.10871537029743195], [0.08723478019237518, -0.12516538798809052, -0.0212053544819355, 0.09287095069885254], [-0.11108456552028656, -0.023402981460094452, -0.023580579087138176, 0.024554897099733353], [0.07075506448745728, 0.04787120968103409, 0.09188082814216614, 0.06796453148126602]], [[0.05966859310865402, 0.08317384868860245, 0.06148449704051018, 0.016197113320231438], [-0.1251048743724823, 0.04301394149661064, -0.03838283196091652, 0.0015890155918896198], [0.049398649483919144, 0.029050761833786964, -0.06002401188015938, 0.09549632668495178], [0.06928611546754837, 0.07838261127471924, 0.08159716427326202, -0.0746486485004425]], [[0.03620751202106476, -0.022493403404951096, -0.06650573760271072, 0.09669843316078186], [0.012015587650239468, 0.09422480314970016, -0.08313769847154617, -0.02671152725815773], [-0.025269491598010063, 0.04905972257256508, 0.056469518691301346, -0.0484342947602272], [-0.036049362272024155, 0.005300295539200306, 0.06046897545456886, 0.08569029718637466]], [[-0.06075841188430786, 0.080291748046875, 0.14773842692375183, 0.060017701238393784], [-0.04236762970685959, 0.010027092881500721, 0.005849594250321388, 0.0015296336496248841], [0.03909844532608986, 0.08660498261451721, 0.05471809208393097, -0.11010772734880447], [-0.004787139594554901, 0.06267394125461578, -0.05484038591384888, 0.03586946055293083]], [[-0.04354547709226608, 0.07673026621341705, 0.017655279487371445, 0.1684500128030777], [-0.012444104999303818, -0.014611011371016502, 0.10239904373884201, -0.12256737053394318], [0.08627194911241531, 0.14134807884693146, -0.03470150753855705, -0.2256128340959549], [0.18009336292743683, -0.09539873898029327, -0.07215267419815063, -0.32756471633911133]], [[-0.05122169479727745, -0.02669888362288475, 0.05977794528007507, -0.12531650066375732], [0.07122770696878433, -0.09634098410606384, -0.1257256418466568, -0.06495625525712967], [-0.1126265749335289, -0.10622692108154297, -0.08119915425777435, 0.08082474768161774], [-0.04004942998290062, 0.00879062432795763, -0.05704536288976669, 0.056021496653556824]]]], "conv21.bias": [-0.14894133806228638, 0.022817391902208328, -0.08825701475143433, -0.0037377700209617615, 0.044573817402124405, 0.07272151112556458, -0.20200404524803162, 0.1517922580242157, -0.06681358814239502, -0.19534572958946228, -0.12756122648715973, 0.111833855509758], "conv22.weight": [[[[0.06171632558107376, 0.04118030518293381, -0.05643656104803085, 0.08863621205091476], [0.08963804692029953, -0.020529545843601227, 0.07315940409898758, 0.004196105990558863], [-0.09800625592470169, 0.0391550175845623, -0.06358347833156586, -0.07834089547395706], [-0.30986735224723816, -0.13313718140125275, 0.07859838008880615, 0.0949525386095047]], [[-0.02744281105697155, -0.10234567523002625, -0.09851863980293274, -0.04868187755346298], [-0.02107594907283783, -0.03250715509057045, -0.12387429922819138, -0.045103639364242554], [0.2300853431224823, 0.11340141296386719, -0.0355122908949852, -0.10561125725507736], [0.35965317487716675, 0.11612251400947571, -0.06975909322500229, 0.09542237222194672]], [[-0.010063455440104008, -0.08418745547533035, -0.002637671772390604, 0.1052858829498291], [0.011389117687940598, 0.09128469228744507, 0.14054496586322784, 0.19855159521102905], [-0.025151843205094337, 0.11505436897277832, 0.23736107349395752, 0.18195022642612457], [-0.23969708383083344, -0.03101379983127117, 0.026793884113430977, 0.0009030016954056919]], [[0.032310932874679565, 0.07267293334007263, -0.08880458027124405, -0.131943017244339], [-0.03129398450255394, -0.08422619104385376, -0.17839370667934418, -0.10006358474493027], [0.11992567032575607, -0.1286948025226593, -0.01742541790008545, -0.04720824211835861], [0.1824350208044052, -0.07434849441051483, 0.045261450111866, -0.06300266087055206]], [[-0.052843447774648666, -0.030236748978495598, -0.21474817395210266, -0.15861834585666656], [0.01702228933572769, -0.019836317747831345, 0.047114111483097076, 0.0920104831457138], [0.16860558092594147, -0.011482319794595242, 0.02249508537352085, 0.03351735323667526], [0.043595995754003525, 0.05598701536655426, -0.07948353886604309, -0.04646001756191254]], [[-0.03596504405140877, -0.08926207572221756, 0.047881897538900375, -0.018356377258896828], [-0.07189544290304184, -0.030420001596212387, 0.15169286727905273, 0.05347730219364166], [-0.0604354664683342, 0.11101027578115463, 0.1120741069316864, 0.07572485506534576], [-0.15791743993759155, 0.054353900253772736, 0.07375273108482361, -0.021154994145035744]]], [[[-0.21579454839229584, -0.04530499503016472, -0.060506317764520645, 0.12593695521354675], [-0.10432005673646927, -0.04975990951061249, -0.04849492013454437, 0.09607219696044922], [0.06292840093374252, 0.002458414761349559, 0.1346954107284546, 0.0650414377450943], [0.21371473371982574, 0.19094081223011017, 0.03935563191771507, 0.03493080660700798]], [[0.14444422721862793, 0.03974073752760887, -0.02982320263981819, 0.085167795419693], [0.21509143710136414, -1.0244839359074831e-05, -0.10688755661249161, 0.03873804211616516], [0.029439570382237434, -0.1935763657093048, -0.12378741800785065, 0.03447384759783745], [-0.13171562552452087, -0.040867879986763, -0.15280041098594666, -0.06086932495236397]], [[-0.021561281755566597, -0.031417734920978546, -0.13195815682411194, -0.0581858828663826], [-0.0018377560190856457, -0.11608995497226715, -0.07545595616102219, 0.01268499344587326], [-0.05653345212340355, -0.01702256314456463, -0.12352479994297028, -0.014044777490198612], [-0.013227899558842182, 0.12151868641376495, -0.058625221252441406, 0.03837790712714195]], [[0.17117738723754883, 0.1727098673582077, -0.02302185259759426, -0.07228757441043854], [-0.02424592524766922, -0.028810100629925728, 0.08989360928535461, -0.024047836661338806], [-0.06528452783823013, 0.054671067744493484, -0.1074545606970787, -0.1334027647972107], [-0.0820503756403923, -0.0270636435598135, -0.059529077261686325, 0.07608973234891891]], [[0.2892167270183563, 0.28092387318611145, 0.11650579422712326, -0.0883340910077095], [0.16112257540225983, 0.02419857308268547, 0.04159849137067795, -0.07716098427772522], [-0.06496003270149231, -0.11997268348932266, -0.016261151060461998, -0.1372837871313095], [-0.21266618371009827, 0.018442489206790924, 0.06315658986568451, -0.1165071576833725]], [[-0.146144837141037, -0.18070559203624725, -0.1754726618528366, -0.011996299028396606], [-0.040887098759412766, -0.03344552591443062, -0.004864140413701534, 0.04804561287164688], [0.008134644478559494, -0.08016789704561234, 0.13052748143672943, -0.03595167398452759], [0.0998937338590622, 0.027013350278139114, -0.049028851091861725, 0.032777752727270126]]], [[[0.17843006551265717, -0.02279919944703579, -0.23498044908046722, -0.11549361795186996], [-0.06613387167453766, -0.08489982783794403, -0.12930960953235626, -0.10269446671009064], [-0.1005467027425766, -0.027955878525972366, -0.03946734219789505, 0.09002528339624405], [0.00017246250354219228, 0.01157383807003498, -0.06198077276349068, -0.0843014270067215]], [[-0.18066371977329254, -0.0982152670621872, 0.02788226678967476, 0.03944609686732292], [0.05058642849326134, -0.007893048226833344, -0.10689233243465424, -0.03562399744987488], [0.007311421446502209, 0.07606325298547745, 0.05789976939558983, -0.06510139256715775], [0.05654946342110634, 0.11656034737825394, 0.1063975915312767, -0.04020897299051285]], [[0.3466063141822815, 0.18785464763641357, -0.1439974009990692, -0.4032067060470581], [0.17425842583179474, 0.23114332556724548, 0.08473322540521622, -0.021744925528764725], [0.12160550057888031, 0.02598400227725506, 0.12541061639785767, 0.1285988837480545], [-0.03043406642973423, 0.040926333516836166, 0.02623838745057583, 0.06860265135765076]], [[-0.1448562890291214, 0.03136385977268219, 0.15365742146968842, 0.1095581203699112], [-0.12940873205661774, -0.05766085907816887, 0.004251717124134302, 0.007795649580657482], [0.06792179495096207, -0.04883851855993271, -0.05795716121792793, -0.015168706886470318], [0.02339325286448002, 0.08240798860788345, 0.024067258462309837, -0.04866791516542435]], [[0.060968611389398575, 0.17590546607971191, 0.005344146862626076, 0.10676923394203186], [0.04860860854387283, -0.032104894518852234, -0.08206971734762192, -0.047885712236166], [0.06686843186616898, -0.0014465998392552137, -0.04172009229660034, -0.0702434852719307], [0.09186910837888718, -0.009839545004069805, 0.015614929609000683, 0.13187220692634583]], [[0.17296001315116882, 0.008908622898161411, -0.0087732570245862, -0.1645553708076477], [0.08623721450567245, 0.05973939225077629, 0.12446493655443192, -0.11711616069078445], [-0.012665469199419022, 0.0351855531334877, 0.08665812015533447, 0.10472220927476883], [-0.1486038714647293, -0.02562176249921322, -0.02885371446609497, 0.13549789786338806]]], [[[-0.03232691437005997, -0.08430162072181702, -0.05939558148384094, 0.08720936626195908], [-0.07922587543725967, -0.025821728631854057, 0.018451426178216934, 0.0028549989219754934], [0.03116822987794876, 0.008975972421467304, 0.05798370763659477, 0.1349807232618332], [0.010699525475502014, 0.014674423262476921, 0.02914278954267502, 0.16710108518600464]], [[-0.05552227795124054, 0.03494082763791084, 0.0013537572231143713, 0.0036442233249545097], [0.07292306423187256, 0.02123437076807022, 0.02472490817308426, -0.028810441493988037], [-0.005315409507602453, -0.07198507338762283, 0.11074145883321762, -0.04275296628475189], [-0.08758164197206497, -0.09014901518821716, -0.06101778522133827, -0.15988139808177948]], [[-0.09964033216238022, -0.10042504221200943, 0.13493356108665466, 0.015750493854284286], [0.022088967263698578, -0.1449471116065979, 0.17691630125045776, 0.04188251122832298], [0.08144024759531021, 0.06325168907642365, 0.047199130058288574, 0.04952630773186684], [0.0872875452041626, -0.02899116836488247, -0.09139544516801834, -0.11872076988220215]], [[0.07330397516489029, -0.07433992624282837, 0.045969970524311066, 0.05785708501935005], [0.07805987447500229, 0.11042922735214233, -0.02679237723350525, -0.1102350577712059], [0.008877475745975971, 0.0016821762546896935, -0.049601294100284576, -0.05560339242219925], [-0.07702320069074631, 0.10973040759563446, 0.060785453766584396, -0.0778856948018074]], [[0.04031530022621155, -0.08691480755805969, 0.02164909802377224, 0.18720629811286926], [-0.05884069576859474, 0.08177202939987183, 0.20565356314182281, 0.02795426733791828], [0.08081883192062378, 0.17589056491851807, -0.04794305935502052, 0.0025212655309587717], [0.22088271379470825, 0.06708419322967529, -0.015378127805888653, 0.047303877770900726]], [[-0.09281925857067108, -0.028500506654381752, 0.048301905393600464, -0.06444157660007477], [-0.068743497133255, 0.07071828097105026, 0.029009105637669563, 0.004197425674647093], [-0.029086902737617493, -0.002848302945494652, -0.08723214268684387, 0.04139537364244461], [0.03460779786109924, -0.11612829566001892, -0.0211261585354805, -0.057571835815906525]]], [[[-0.014374742284417152, 0.13644057512283325, 0.16130571067333221, 0.16313759982585907], [-0.09143868833780289, 0.24108010530471802, 0.18321827054023743, -0.06688418984413147], [-0.07885058969259262, 0.12704384326934814, 0.04983925074338913, -0.18097910284996033], [0.15261687338352203, 0.07265917211771011, -0.20502828061580658, -0.1444469392299652]], [[0.21735361218452454, -0.02138381078839302, -0.04129314795136452, -0.05049096420407295], [0.1610526740550995, -0.04546041414141655, -0.22471840679645538, -0.011993792839348316], [0.14447574317455292, 0.05939172953367233, -0.016039757058024406, 0.1715959906578064], [0.12173371016979218, 0.05899569019675255, -0.05950391665101051, 0.20632897317409515]], [[-0.22654609382152557, -0.046056993305683136, 0.06722992658615112, -0.06191546842455864], [-0.11603961884975433, -0.10211130231618881, -0.08632007241249084, -0.17310462892055511], [0.003186669433489442, 0.009261801838874817, 0.024785881862044334, -0.08149930089712143], [-0.2310081124305725, -0.13660886883735657, -0.01983899623155594, -0.0517367422580719]], [[-0.020819811150431633, -0.00043575934250839055, -0.01800481602549553, -0.06517814099788666], [0.04189464449882507, -0.15346790850162506, -0.10707422345876694, 0.0893215611577034], [-0.03652437403798103, -0.15876750648021698, -0.037437375634908676, 0.20768141746520996], [0.04010563716292381, -0.062326639890670776, 0.1592845916748047, 0.14744018018245697]], [[-0.22868667542934418, -0.2728537917137146, -0.21595987677574158, 0.02801060490310192], [-0.14444926381111145, -0.19593432545661926, -0.10450249165296555, 0.18285024166107178], [-0.18232661485671997, -0.13082550466060638, -0.10721954703330994, 0.10857785493135452], [-0.2426341027021408, -0.27001500129699707, -0.08371664583683014, 0.1927374303340912]], [[-0.1639624685049057, 0.0810944139957428, 0.10148430615663528, 0.09232015907764435], [0.0804116427898407, 0.09933297336101532, 0.13979168236255646, 0.017648253589868546], [-0.03491007164120674, 0.08611584454774857, -0.04813917726278305, -0.0025986304972320795], [-0.001122390734963119, -0.0042181191965937614, 0.033806461840867996, -0.10339830070734024]]], [[[-0.1734268069267273, 0.01462738960981369, 0.07316959649324417, -0.005629912484437227], [-0.25942808389663696, -0.11560725420713425, -0.12659528851509094, -0.07384362816810608], [-0.08025883883237839, -0.1921597123146057, -0.0778600201010704, -0.11784108728170395], [0.02429184317588806, -0.030634799972176552, 0.14367742836475372, 0.0010660734260454774]], [[0.19427834451198578, 0.03869210183620453, 0.06810396164655685, -0.11727336049079895], [0.09799651056528091, 0.14452897012233734, -0.02758779004216194, 0.01679549738764763], [0.014153886586427689, 0.04138777032494545, 0.051415685564279556, 0.042834844440221786], [0.05097347870469093, 0.0237002894282341, -0.10286270081996918, -0.053876303136348724]], [[-0.12348438799381256, 0.07457200437784195, 0.12161876261234283, -0.03481213375926018], [-0.12377674877643585, -0.13277819752693176, -0.03710108622908592, 0.04657869040966034], [-0.1321188509464264, -0.05746235325932503, -0.0005522693390958011, -0.058046866208314896], [-0.016492921859025955, -0.11123603582382202, -0.13397900760173798, -0.08334440737962723]], [[0.17894835770130157, -0.027933528646826744, -0.05197915434837341, -0.09878390282392502], [0.055981796234846115, 0.10852541774511337, 0.10828792303800583, -0.017359226942062378], [0.03477033972740173, -0.007872258313000202, 0.10769698768854141, -0.07202859222888947], [0.08451668173074722, 0.03343384340405464, -0.13075262308120728, -0.10590750724077225]], [[0.05467692017555237, -0.13387484848499298, -0.17512944340705872, -0.15938128530979156], [0.04716877266764641, -0.05345815420150757, 0.06268728524446487, 0.16028957068920135], [0.057561177760362625, 0.06342390179634094, 0.09268419444561005, 0.002624486805871129], [0.08913150429725647, 0.035908252000808716, 0.028231609612703323, -0.02738778479397297]], [[-0.13899821043014526, -0.04238508641719818, 0.10508999228477478, -0.024861548095941544], [-0.0926971286535263, 0.03861220180988312, -0.038942549377679825, 0.04424304515123367], [-0.08830224722623825, -0.06690617650747299, 0.022519422695040703, 0.07200687378644943], [-0.11459154635667801, 0.00802726112306118, 0.06870365142822266, -0.021605221554636955]]], [[[-0.07216424494981766, 0.007551276590675116, -0.10511724650859833, -0.011009958572685719], [-0.06075328588485718, -0.03915432095527649, 0.1578526794910431, 0.07494790107011795], [-0.04225891828536987, -0.017507312819361687, 0.03651893511414528, -0.008029984310269356], [-0.17559878528118134, -0.007759734056890011, -0.12337412685155869, -0.2026575803756714]], [[0.15933528542518616, 0.03867604210972786, -0.10187989473342896, -0.07098942250013351], [0.11195765435695648, -0.018021266907453537, -0.10139824450016022, -0.20970313251018524], [0.07250799983739853, 0.19359125196933746, -0.01307214330881834, 0.02000117488205433], [0.11143209040164948, 0.185806542634964, 0.032800670713186264, 0.10737130045890808]], [[0.006724347360432148, 0.08418682962656021, 0.07821563631296158, 0.01291128620505333], [-0.042242176830768585, 0.03942984715104103, 0.12459009885787964, 0.04708469659090042], [0.0034669958986341953, -0.0227911826223135, 0.12909258902072906, 0.2436298280954361], [-0.326247900724411, -0.13304542005062103, 0.02743256278336048, 0.13463251292705536]], [[-0.08166934549808502, -0.016393763944506645, -0.11938552558422089, -0.0032339664176106453], [0.037373557686805725, -0.15013661980628967, -0.14065036177635193, 0.06315568089485168], [0.04696741700172424, -0.057600878179073334, -0.01793748512864113, -0.0069825430400669575], [0.02430972084403038, 0.10061430186033249, 0.05170337110757828, -0.01641664281487465]], [[0.1018456369638443, -0.11258348077535629, 0.04928375408053398, 0.08982954919338226], [-0.17636330425739288, -0.09101106971502304, -0.20106394588947296, -0.07339390367269516], [0.045159969478845596, -0.2547299265861511, -0.024475621059536934, 0.23752698302268982], [0.11945967376232147, -0.07821359485387802, 0.1561071276664734, 0.21226942539215088]], [[-0.08936326950788498, -0.012058690190315247, -0.007947999984025955, -0.03944747895002365], [-0.06725900620222092, 0.0385860837996006, 0.06036163121461868, 0.02170851081609726], [-0.13778255879878998, 0.10674292594194412, 0.08191302418708801, 0.11587820947170258], [-0.14915423095226288, 0.04104059934616089, -0.06816156208515167, -0.12794709205627441]]], [[[-0.08782827109098434, 0.006582205183804035, 0.08861777931451797, 0.1037556454539299], [0.09961701184511185, -0.010406866669654846, 0.10333139449357986, 0.009243015199899673], [0.03128693625330925, 0.06320133060216904, 0.12252867966890335, 0.0031924115028232336], [-0.03210357204079628, 0.020355207845568657, 0.08545439690351486, 0.10379882156848907]], [[0.07068467885255814, -0.056332558393478394, -0.08646534383296967, 0.04122282192111015], [0.0765993520617485, 0.07555463910102844, 0.013854154385626316, 0.013227324932813644], [0.06051100417971611, -0.06861115247011185, 0.03771205618977547, 0.07246163487434387], [-0.00024496414698660374, -0.060930367559194565, 0.03934109956026077, -0.013824308291077614]], [[-0.06292403489351273, 0.03784358873963356, 0.035692423582077026, 0.03675345331430435], [-0.013433360494673252, 0.07486885040998459, -0.02932651899755001, 0.07679063081741333], [0.03900228440761566, -0.060109566897153854, 0.015478404238820076, 0.13016486167907715], [0.10234489291906357, 0.08708463609218597, -0.023548917844891548, 0.1751224249601364]], [[0.07308049499988556, 0.02624727413058281, 0.037633754312992096, -0.025912761688232422], [-0.04347609356045723, 0.019497742876410484, -0.07208913564682007, 0.022816048935055733], [0.016544964164495468, 0.007013240363448858, -0.11330847442150116, -0.07075945287942886], [-0.01514680776745081, 0.03205016255378723, 0.029307831078767776, -0.057215310633182526]], [[-0.04571925476193428, 0.13023439049720764, 0.06636489927768707, -0.027269680052995682], [-0.011014454066753387, -0.06254415214061737, -0.010509662330150604, 0.05338892713189125], [0.06083862856030464, -0.06403256207704544, -0.01713760569691658, -0.12418511509895325], [0.025784850120544434, 0.008305314928293228, -0.1537795215845108, -0.10160138458013535]], [[-0.06487075984477997, -0.03091234713792801, -0.061759404838085175, 0.04446515068411827], [0.02164841815829277, 0.08395185321569443, 0.0028403745964169502, 0.014140108600258827], [0.03420000150799751, 0.020251071080565453, -0.07408168911933899, -0.04714654013514519], [-0.0736556276679039, 0.08962879329919815, -0.09325806796550751, -0.04503602162003517]]], [[[-0.09209008514881134, -0.12199092656373978, -0.060382697731256485, -0.013213363476097584], [-0.18834656476974487, 0.031653109937906265, 0.0174491498619318, 0.09831646084785461], [-0.04217134788632393, 0.03658485785126686, 0.08702516555786133, -0.06993516534566879], [0.0849422737956047, 0.17938031256198883, 0.16992998123168945, -0.08782219886779785]], [[0.11497640609741211, 0.11252454668283463, 0.08080259710550308, -0.009423328563570976], [-0.017189590260386467, 0.06191118061542511, -0.03090694360435009, -0.11256067454814911], [-0.05706987902522087, -0.22909967601299286, -0.14919012784957886, -0.21762141585350037], [-0.09694121778011322, 0.025137782096862793, -0.05844565108418465, -0.04438450187444687]], [[-0.22826413810253143, -0.17657805979251862, -0.10219832509756088, -0.17226934432983398], [-0.2303098440170288, -0.051365870982408524, -0.0955028384923935, -0.06109897419810295], [0.0588654987514019, 0.01598079316318035, -0.03158183395862579, 0.06032240763306618], [0.1321810483932495, 0.18772879242897034, 0.1582489013671875, 0.24463598430156708]], [[0.07671887427568436, 0.06283490359783173, -0.015642138198018074, 0.039955053478479385], [0.11461591720581055, -0.07219217717647552, -0.11990198493003845, -0.013038184493780136], [-0.10708470642566681, -0.19189491868019104, -0.15692833065986633, -0.10510638356208801], [-0.15274514257907867, -0.14442865550518036, -0.051879338920116425, -0.0059981090016663074]], [[0.14981669187545776, -0.006751134060323238, -0.039663661271333694, 0.06560497730970383], [0.048678889870643616, -0.08243813365697861, -0.08702299743890762, 0.056526802480220795], [-0.06841756403446198, -0.14212167263031006, -0.12449966371059418, -0.0731692835688591], [-0.27125874161720276, -0.19666314125061035, -0.2765882909297943, -0.0011301083723083138]], [[-0.2374589741230011, -0.15607251226902008, -0.05423362925648689, 0.06364942342042923], [-0.21111130714416504, -0.08687687665224075, -0.061713315546512604, 0.024573711678385735], [0.1133350357413292, 0.11997963488101959, 0.018044177442789078, 0.12835893034934998], [0.14630582928657532, 0.031313613057136536, 0.12357817590236664, 0.0821743905544281]]], [[[0.050006039440631866, -0.011034153401851654, -0.14512251317501068, -0.11570774763822556], [-0.006706985179334879, -0.021904274821281433, -0.17577633261680603, -0.16587750613689423], [0.037454672157764435, -0.045416492968797684, -0.0701427236199379, -0.0471826046705246], [0.08722370862960815, 0.12034548074007034, 0.15294118225574493, 0.05076980218291283]], [[0.11363914608955383, -0.08008314669132233, 0.08890409767627716, 0.19688443839550018], [0.11752703040838242, -0.07571817934513092, -0.05053827166557312, 0.11613573133945465], [0.04229196161031723, -0.03287093713879585, -0.03297211602330208, -0.029438992962241173], [-0.013149382546544075, -0.14731337130069733, -0.13139915466308594, -0.19220027327537537]], [[0.09469795972108841, 0.007206128444522619, 0.002417795592918992, -0.12172470986843109], [-0.06954599171876907, 0.05258430540561676, -0.11218870431184769, -0.23603007197380066], [0.061239585280418396, 0.06503891199827194, -0.15383993089199066, -0.18655996024608612], [0.1232042983174324, 0.07765009999275208, 0.12254058569669724, 0.007900802418589592]], [[-0.12012434750795364, 0.027552582323551178, 0.1519090235233307, 0.041161395609378815], [-0.030549410730600357, -0.05585521459579468, 0.09932412207126617, 0.12118767946958542], [-0.10138830542564392, 0.017395194619894028, -0.04456763342022896, 0.07304179668426514], [-0.04305065795779228, -0.1161993071436882, -0.14726586639881134, 0.007910572923719883]], [[-0.0019785771146416664, 0.14310026168823242, 0.21540933847427368, 0.2539975941181183], [0.04679331183433533, 0.09300126135349274, 0.10943857580423355, 0.22126196324825287], [-0.16348308324813843, -0.24082399904727936, 0.002511945553123951, 0.01037859171628952], [-0.24167965352535248, -0.2928912937641144, -0.07841972261667252, -0.01838592439889908]], [[0.15940967202186584, -0.00036038918187841773, -0.07889093458652496, -0.15235796570777893], [0.007836941629648209, -0.068417489528656, -0.09950058907270432, -0.19263455271720886], [-0.05321463942527771, 0.08558719605207443, 0.08406899869441986, -0.12767371535301208], [0.027430180460214615, 0.15108199417591095, 0.13449601829051971, 0.05749015882611275]]], [[[-0.12992824614048004, 0.14192001521587372, -0.04802551120519638, 0.11172329634428024], [-0.14031341671943665, 0.16304251551628113, -0.06028708815574646, 0.0027062029112130404], [-0.08363735675811768, -0.0626656711101532, 0.06997104734182358, -0.14992229640483856], [0.0002173547982238233, -0.017552891746163368, -0.015515215694904327, -0.1336469054222107]], [[0.17397792637348175, 0.10493204742670059, -0.08534570783376694, 0.03593909740447998], [0.19398358464241028, 0.03436878323554993, -0.0622931607067585, -0.011418681591749191], [0.20519551634788513, 0.11822459846735, -0.005880128592252731, 0.05150531604886055], [0.1403871327638626, 0.042642924934625626, -0.011772195808589458, 0.13687843084335327]], [[-0.09838579595088959, -0.024823008105158806, -0.06536881625652313, 0.05545607954263687], [-0.14245733618736267, -0.02366463840007782, -0.017087925225496292, -0.09464213252067566], [-0.16328434646129608, -0.05764210224151611, 0.17000070214271545, 0.005868012551218271], [-0.17109622061252594, -0.1555033177137375, -0.02163551189005375, 0.11479577422142029]], [[-0.05448443070054054, -0.039411865174770355, -0.10504934936761856, -0.11255598813295364], [0.06495193392038345, -0.02601948380470276, -0.09651003032922745, -0.00506181176751852], [0.02786155417561531, -0.08349002152681351, 0.04393919184803963, 0.0444629043340683], [0.027727952226996422, 0.06440077722072601, 0.09344198554754257, -0.08435265719890594]], [[-0.06019141152501106, -0.12648332118988037, -0.02871561422944069, -0.13295866549015045], [-0.14429663121700287, -0.24059456586837769, -0.009279923513531685, 0.03321465849876404], [-0.009702550247311592, -0.04984186217188835, -0.029337078332901, -0.0333428755402565], [-0.014959780499339104, -0.16019071638584137, -0.014015084132552147, -0.0674213320016861]], [[0.02002669870853424, 0.026906752958893776, -0.007043082267045975, 0.0006197160109877586], [-0.06021011248230934, 0.10862942039966583, 0.11558380722999573, 0.0396326519548893], [-0.0789242833852768, 0.016893303021788597, 0.10062956064939499, 0.1122179850935936], [-0.060663852840662, -0.037824977189302444, 0.02021825686097145, -0.029016999527812004]]], [[[-0.06912717968225479, -0.032574091106653214, 0.03444569557905197, -0.02604629099369049], [-0.0715092346072197, -0.05176599323749542, -0.09946398437023163, -0.00759064219892025], [-0.11422962695360184, -0.0739566832780838, -0.08320000767707825, -0.005973325576633215], [-0.07773907482624054, 0.0503707155585289, 0.04192356392741203, -0.045415785163640976]], [[0.07191940397024155, 0.04415895417332649, 0.068704754114151, 0.07561003416776657], [-0.07186494022607803, 0.03341715782880783, 0.03790402039885521, 0.03481917828321457], [-0.057331401854753494, 0.01998487487435341, 0.017217742279171944, 0.07543308287858963], [-0.03357502445578575, 0.015109555795788765, -0.09525590389966965, -0.05623377487063408]], [[-0.1262752115726471, 0.013160948641598225, 0.03795487806200981, 0.022869626060128212], [-0.12006498873233795, 0.03710484504699707, -0.02762180007994175, -0.004777571652084589], [-0.11884411424398422, -0.041832853108644485, 0.09938262403011322, -0.04291468486189842], [-0.04858258366584778, -0.015374568291008472, -0.011276548728346825, -0.10629960149526596]], [[-0.0438920259475708, 0.037913478910923004, -0.024883897975087166, 0.09518368542194366], [0.12354464828968048, -0.017724476754665375, 0.10035228729248047, -0.05235271155834198], [0.1360749900341034, -0.0897853747010231, 0.11970818787813187, -0.074147529900074], [-0.085505411028862, 0.10052426159381866, 0.018559306859970093, 0.0034923828206956387]], [[-0.026792656630277634, -0.07516969740390778, -0.04334176704287529, -0.011119668371975422], [0.09762217104434967, 0.0005251422408036888, 0.11778107285499573, -0.11647307127714157], [-0.033699288964271545, 0.06029677018523216, -0.014876141212880611, -0.016893981024622917], [0.1213374137878418, -0.03375513479113579, 0.0866384506225586, 0.006542776711285114]], [[-0.10626332461833954, -0.006987794302403927, 0.020814986899495125, -0.03520030528306961], [-0.08666258305311203, -0.048617374151945114, 0.04517362266778946, 0.047511808574199677], [-0.07489535212516785, 0.06363063305616379, 0.06108088791370392, 0.09545139968395233], [-0.05883869528770447, 0.058491818606853485, -0.031405169516801834, 0.0017749662511050701]]]], "conv22.bias": [0.1360885351896286, 0.06920364499092102, -0.1351313591003418, 0.07366343587636948, 0.0461139976978302, -0.18019115924835205, -0.09833205491304398, 0.1520199030637741, 0.11590777337551117, -0.06017748638987541, -0.10338176786899567, -0.07560073584318161], "fc.weight": [[0.04342947527766228, -0.04269366338849068, -0.04444054514169693, -0.046600908041000366, -0.033471327275037766, -0.021634142845869064, -0.09598790854215622, -0.13382849097251892, -0.048535533249378204, -0.027537431567907333, 0.03640894591808319, 0.07976679503917694, -0.07135868072509766, -0.057639867067337036, -0.08658447861671448, -0.15481886267662048, -0.0830647423863411, -0.04132988676428795, -0.06822770088911057, -0.01549302227795124, -0.044728610664606094, -0.13502465188503265, -0.033513497561216354, 0.046346522867679596, -0.11387991160154343, -0.001486993278376758, -0.08411078155040741, -0.030125988647341728, -0.14855554699897766, -0.13326144218444824, -0.006888336502015591, 0.049928173422813416, -0.0334092378616333, 0.02934081293642521, -0.0219179205596447, -0.0994172915816307, -0.018012257292866707, -0.051132041960954666, 0.047161757946014404, -0.028607113286852837, -0.02038775011897087, 0.045831918716430664, 0.022619785740971565, 0.059482719749212265, 0.07970437407493591, 0.058334995061159134, 0.1161772608757019, -0.10400036722421646, -0.007642413955181837, 0.0194771159440279, -0.022024469450116158, 0.06176472082734108, 0.04222321882843971, -0.06817607581615448, 0.010960078798234463, 0.03121139295399189, 0.06245878338813782, 0.0029009205754846334, 0.026659732684493065, 0.013465006835758686, 0.010110203176736832, 0.0354594960808754, -0.05818267911672592, -0.022344471886754036, 0.004471746739000082, -0.10575374215841293, -0.03315609320998192, -0.009535430930554867, 0.01789979264140129, 0.027980566024780273, 0.024308767169713974, -0.06254729628562927, 0.020428989082574844, 0.0023276307620108128, -0.005640475079417229, -0.07193394005298615, -0.0531914196908474, -0.19008998572826385, -0.14364242553710938, -0.06455186754465103, 0.012151554226875305, -0.05451509356498718, -0.047188226133584976, -0.1051173135638237, 0.06512025743722916, 0.005078095011413097, 0.04105212539434433, -0.013972515240311623, -0.08919323235750198, -0.09976358711719513, -0.16151313483715057, -0.10819815844297409, -0.08582298457622528, 0.01123427227139473, -0.07535049319267273, -0.10067988932132721, -0.023553848266601562, -0.00937142875045538, 0.021242225542664528, 0.005837614182382822, 0.031729958951473236, -0.02992025949060917, -0.04583875462412834, -0.02755133807659149, -0.09295090287923813, -0.00991783570498228, -0.053486477583646774, -0.09141848236322403, 0.0450906865298748, 0.034880638122558594, -0.020513633266091347, 0.028404822573065758, 0.02769521437585354, -0.008084486238658428, -0.053508300334215164, -0.11963330954313278, -0.07063202559947968, -0.08949007838964462, -0.08556841313838959, -0.08100578933954239, -0.11739688366651535, 0.04551300033926964, 0.06812050193548203, -0.002741330536082387, 0.04466443881392479, -0.02722623571753502, -0.03482522442936897, -0.027895919978618622, -0.09893519431352615, 0.022797860205173492, 0.03433767333626747, -0.03260500356554985, 0.15858107805252075, -0.103941909968853, 0.02437472902238369, 0.0175520870834589, -0.032652173191308975, -0.002898354083299637, -0.00854548905044794, -0.09232409298419952, -0.12231749296188354, -0.1308833658695221, -0.06675750762224197, 0.09700670093297958, -0.0691775232553482, -0.1385752111673355, -0.0870010033249855, -0.022475164383649826, -0.013693509623408318, -0.12900879979133606, -0.22097212076187134, -0.0898020938038826, -0.09110543876886368, -0.044144753366708755, -0.013582248240709305, 0.07691129297018051, -0.048170000314712524, -0.06084207445383072, 0.012991601601243019, -0.03300797939300537, -0.04272463545203209, -0.02803063951432705, 0.02355640009045601, -0.017094874754548073, -0.08678904175758362, 0.0521899051964283, -0.006293701473623514, -0.029981553554534912, -0.057986147701740265, -0.03488488122820854, -0.008158426731824875, 0.010170203633606434, -0.03085869550704956, 0.007041601929813623, 0.021411769092082977, -0.10143296420574188, -0.06766246259212494, -0.08650325238704681, -0.03553882986307144, -0.06289701908826828, 0.027905011549592018, 0.0072200000286102295, -0.00047125009587034583, -0.032512910664081573, 0.010648935101926327, 0.022251665592193604, -0.029524605721235275, -0.08440281450748444, -0.1849219799041748, -0.15975886583328247, -0.033875592052936554, 0.0782923549413681, -0.023249665275216103, 0.015119783580303192, 0.009900497272610664, -0.007522155065089464, 0.01737549528479576, -0.05508305877447128, -0.13618949055671692, -0.17361797392368317, -0.21694959700107574, -0.1137777641415596, -0.06101682037115097, -0.04957039654254913, -0.0074715446680784225, 0.04748872295022011, 0.09564594179391861, 0.10793541371822357, -0.03324207291007042, 0.002810694510117173, -0.11850655823945999, -0.12875854969024658, -0.10431384295225143, 0.02006375417113304, -0.06087325140833855, -0.06493249535560608, 0.050321076065301895, 0.048635076731443405, 0.05548226833343506, 0.11642827838659286, 0.004851042293012142, -0.04683735966682434, -0.056818243116140366, 0.007975501008331776, 0.0015326616121456027, 0.03531728312373161, 0.0432426817715168, -0.01953333057463169, 0.10714834928512573, -0.013572629541158676, -0.03071622923016548, 0.014715686440467834, -0.0008548039477318525, -0.05585747957229614, 0.013360584154725075, 0.044856905937194824, 0.08197459578514099, 0.030028406530618668, -0.03994451090693474, -0.08077163249254227, 0.060000065714120865, -0.06583790481090546, -0.10824739933013916, -0.08457977324724197, 0.012720401398837566, 0.061385735869407654, 0.04697009176015854, 0.08790929615497589, 0.02361326850950718, -0.002401708858087659, 0.011957925744354725, 0.06516211479902267, 0.03867762163281441, -0.03404791280627251, 0.0050123343244194984, -0.044877126812934875, -0.12786071002483368, -0.002750818384811282, 0.04803801327943802, 0.05537709966301918, -0.0037783789448440075, -0.021444197744131088, 0.029078010469675064, 0.022243022918701172, -0.021900182589888573, -0.0025395192205905914, -0.08949969708919525, -0.10292167961597443, -0.10469440370798111, -0.02521776407957077, 0.003217326710000634, -0.037745505571365356, 0.03597358614206314, -0.010532280430197716, 0.06108678877353668, -0.01292597409337759, 0.12030968070030212, 0.07345447689294815, -0.0737561360001564, -0.04959973692893982, -0.07582690566778183, -0.1933336853981018, -0.02668745070695877, -0.00760254031047225, -0.010456966236233711, -0.11156617105007172, -0.07001079618930817, -0.06272595375776291, -0.025363557040691376, 0.07082417607307434, 0.10240492224693298, 0.1065262109041214, 0.13999226689338684, 0.05901878699660301, 0.08808095008134842, 0.16689392924308777, 0.07031978666782379, 0.002768442267552018, -0.05119047686457634, -0.13702836632728577, 0.03860072046518326, 0.027057742699980736, 0.15150727331638336, 0.1029699370265007, 0.08594030886888504, 0.0747041404247284, 0.07305915653705597, -0.051592253148555756, -0.030583448708057404, 0.004147664178162813, 0.09442286193370819, -0.06799864023923874, 0.13061247766017914, 0.028296343982219696, 0.09819836914539337, 0.015188933350145817, -0.003034718334674835, -0.08836863934993744, -0.03570891544222832, -0.019081301987171173, -0.0656857043504715, -0.05995314568281174, 0.01763537898659706, 0.03695560246706009, -0.05865282565355301, 0.02072620391845703, 0.04059866443276405, 0.08962572365999222, 0.035263873636722565, -0.04980248585343361, -0.06920964270830154, -0.02980971522629261, -0.07488909363746643, -0.03669926896691322, -0.024241765961050987, 0.01650187373161316, 0.05187126621603966, 0.003601591568440199, 0.041419677436351776, 0.06822262704372406, -0.0036140689626336098, -0.01663932017982006, -0.09517385065555573, -0.030107516795396805, -0.02369396761059761, -0.060135453939437866, -0.04012925177812576, 0.0563838817179203, 0.04047831892967224, -0.00972429197281599, 0.06483770161867142, 0.08632973581552505, -0.008162490092217922, 0.05041076987981796, 0.11414578557014465, -0.03366020321846008, 0.0242181234061718, -0.014300190843641758, -0.04882166162133217, 0.11178814619779587, 0.0014125006273388863, 0.08315107226371765, 0.005504012573510408, -0.042380355298519135, 0.10899248719215393, 0.08393217623233795, 0.017537301406264305, 0.10081633925437927, -0.015896344557404518, 0.014297186397016048, 0.0714828222990036, 0.06020846962928772, -0.004381632432341576, -0.04269752278923988, -0.024088967591524124, -0.08126343041658401, 0.06333013623952866, 0.04328545928001404, -0.09393575042486191, 0.04264723137021065, 0.09262252599000931, 0.04469917714595795, 0.04837555065751076, 0.02304757945239544, 0.059299785643815994, 0.06056554988026619, 0.0032245025504380465, -0.0009531172690913081, 0.017182618379592896, -0.027478063479065895, 0.001963115995749831, 0.03715132176876068, 0.13282470405101776, 0.12713652849197388, 0.056903861463069916, 0.13033144176006317, 0.04807188734412193, -0.03151421993970871, 0.07313503324985504, -0.01696782559156418, -0.04250042513012886, -0.07497360557317734, -0.0868644267320633, 0.06840483099222183, 0.10241623222827911, 0.07329976558685303, 0.09805124253034592, 0.09999923408031464, -0.009181883186101913, 0.11086754500865936, 0.02090637758374214, 0.01711898110806942, -0.011520640924572945, -0.03492571786046028, 0.0017827923875302076, -0.016899116337299347, 0.12319006025791168, 0.07350869476795197, -0.0654897466301918, 0.05522555485367775, 0.06339579075574875, -0.07212218642234802, 0.054240282624959946, -0.06786490231752396, -0.09560852497816086, -0.06907235085964203, 0.06313899904489517, 0.11009638756513596, 0.15088893473148346, 0.10612334311008453, 0.2417338788509369, -0.10903725773096085, -0.07470088452100754, -0.08134602010250092, 0.0030918652191758156, -0.12828660011291504, -0.07166442275047302, -0.13769212365150452, -0.11300162971019745, -0.10251570492982864, -0.1329076886177063, -0.06967687606811523, -0.043755918741226196, -0.05224421247839928, -0.08745718002319336, -0.0643705502152443, -0.08423756062984467, 0.004373268224298954, -0.0867658406496048, -0.10907308012247086, 0.006202543154358864, -0.07528064399957657, -0.041758421808481216, -0.006679899990558624, 0.018038325011730194, -0.07992958277463913, -0.10966808348894119, -0.09615655988454819, -0.033733200281858444, -0.012895905412733555, -0.019692428410053253, -0.05153168737888336, -0.05029183253645897, -0.0006285085692070425, 0.011548934504389763, -0.06020199880003929, 0.04535641148686409, -0.08183920383453369, -0.061323173344135284, -0.07406385987997055, -0.04388696700334549, -0.0089137377217412, 0.013851492665708065, -0.039123255759477615, -0.020998703315854073, 0.03327763080596924, 0.02987891249358654, 0.0030345777049660683, 0.08138331770896912, -0.1298890858888626, -0.15550808608531952, -0.03850778192281723, 0.025097006931900978, 9.122744086198509e-05, 0.022870322689414024, 0.05990567058324814, -0.0173124261200428, 0.01892995461821556, 0.0518006831407547, 0.025102045387029648, 0.05966942757368088, -0.019842855632305145, -0.04441923275589943, 0.05171139910817146, -0.011728203855454922, 0.00887598842382431, 0.06944873929023743, 0.016377661377191544, 0.00719629880040884, -0.010860223323106766, -0.01180664636194706, 0.05264601856470108, 0.06324602663516998, -0.07708407938480377, -0.101744644343853, 0.12097601592540741, 0.020075298845767975, 0.0031480540055781603, 0.027187159284949303, 0.005189789459109306, -0.14451153576374054, -0.01630168780684471, 0.0017004308756440878, 0.06033559516072273, 0.04133410006761551, -0.0833282470703125, 0.05096348747611046, 0.07164917886257172, -0.007914630696177483, 0.05260225757956505, -0.012198571115732193, -0.04318104684352875, -0.08108269423246384, 0.025305014103651047, 0.03410497307777405, 0.007544669788330793, -0.04291979968547821, 0.015196064487099648, -0.06616900116205215, 0.008001317270100117, -0.056781105697155, 0.030303433537483215, 0.03537502884864807, -0.04656375199556351, 0.02925754338502884, 0.0009454998071305454, -0.010159272700548172, -0.00039264786755666137, -0.0025227076839655638, -0.17385916411876678, -0.0064224847592413425, -0.0001494130992796272, 0.009878164157271385, 0.010288449935615063, 0.003477345919236541, 0.00998225249350071, -0.030871883034706116, 0.03252270072698593, -0.07382437586784363, -0.055038854479789734, -0.006835584063082933, -0.17265965044498444, -0.04934263974428177, -0.040383730083703995, 0.017565425485372543, 0.014291404746472836, 0.003539253259077668, 0.0038505832199007273, -0.051289018243551254, -0.11735899746417999, -0.055348776280879974, -0.06408147513866425, -0.012720623053610325, -0.05068006366491318, -0.11358926445245743, -0.013657803647220135, 0.00627323891967535, -0.017704730853438377, -0.07350064814090729, -0.0361994169652462, -0.08707556873559952, -0.14026832580566406, -0.1402997076511383, -0.04793989285826683, -0.045115768909454346, -0.0731908306479454, 0.1067345067858696, 0.17330671846866608, 0.0384162999689579, 0.16176289319992065, 0.11199969053268433, 0.16724875569343567, 0.1494615525007248, 0.23471499979496002, 0.15928681194782257, 0.10508207976818085, 0.0921546220779419, 0.06410495191812515, 0.20471172034740448, 0.10803326219320297, 0.04512493684887886, 0.034109506756067276, 0.1864372342824936, 0.00078575499355793, 0.03807463124394417, 0.11310045421123505, 0.06444736570119858, 0.05442364513874054, -0.021504877135157585, 0.06909102946519852, 0.12751823663711548, 0.13867731392383575, 0.08210711181163788, 0.02431967481970787, 0.03350311890244484, 0.0022409381344914436, 0.13355906307697296, 0.009081440977752209, -0.008860379457473755, 0.07473211735486984, 0.05480886250734329, 0.08534955978393555, -0.00016290727944578975, 0.07832076400518417, 0.05370894446969032, 0.0037966009695082903, -0.012660693377256393, 0.1314041167497635, 0.02999279834330082, 0.10949654132127762, 0.0038717833813279867, 0.08823589235544205, 0.14651921391487122, 0.021721309050917625, 0.06915384531021118, -0.046043284237384796, -0.04521288722753525, 0.06211738660931587, 0.040051933377981186, -0.024945424869656563, -0.047846321016550064, -0.03395559638738632, -0.010567473247647285, 0.05184463411569595, -0.14344990253448486, 0.055157385766506195, 0.028352180495858192, -0.03414957970380783, -0.05709619075059891, -0.055006351321935654, -0.06769289076328278, -0.012182261794805527, -0.09049008786678314, -0.014164592139422894, -0.1307472288608551, -0.047598712146282196, -0.12458141893148422, 0.024933278560638428, -0.031997449696063995, -0.06802593916654587, 0.0032143318094313145, -0.07955286651849747, -0.10495184361934662, 0.024623114615678787, -0.02128012292087078, -0.038303881883621216, 0.0344783216714859, 0.006524240598082542, -0.07874240726232529, 0.020442353561520576, 0.0036930472124367952, -0.09580875933170319, 0.03819585591554642, -0.0248845424503088, -0.09920617938041687, -0.06557247787714005, -0.03328070044517517, -0.041355811059474945, 0.04310165345668793, -0.018869534134864807, -0.045672621577978134, 0.1058998554944992, 0.07359141111373901, -0.09746713936328888, -0.06556549668312073, -0.1594861000776291, -0.04664617031812668, -0.09744851291179657, -0.034802816808223724, -0.00458423001691699, -0.012542006559669971, 0.0466148741543293, 0.02303311787545681, 0.01713770627975464, 0.05390026792883873, -0.09877003729343414, -0.11689770221710205, -0.05536321550607681, 0.005115292500704527, -0.04576640948653221, -0.12369254976511002, -0.04197287559509277, -0.010978512465953827, -0.012344527058303356, 0.05208683758974075, 0.07464160770177841, 0.11251330375671387, 0.035708941519260406, -0.07714689522981644, 0.033396556973457336, 0.11738734692335129, 0.20312809944152832, 0.21817250549793243, 0.1694563776254654, 0.010254264809191227, -0.006824641488492489, 0.226363405585289, 0.01606624573469162, 0.020760025829076767, 0.04802597686648369, 0.12477923184633255, 0.19058364629745483, 0.21941326558589935, 0.2810865044593811, 0.4397633969783783, 0.28703573346138, 0.08619466423988342, 0.27142903208732605, 0.21855515241622925, 0.11496474593877792, 0.07690834999084473, 0.07155637443065643, 0.07414042949676514, -0.04554913565516472, -0.022093432024121284, -0.03338883817195892, -0.04010235145688057, -0.09082531183958054, -0.0721256285905838, -0.037146203219890594, -0.04050219804048538, 0.030637841671705246, 0.061054691672325134, -0.02323692850768566, 0.023832853883504868, 0.012793554924428463, 0.014715325087308884, -0.0401797778904438, 0.07784314453601837, -0.0562899149954319, -0.12709933519363403, -0.06505617499351501, 0.047067027539014816, -0.015910029411315918, 0.1046610102057457, 0.12718701362609863, 0.01423798967152834, 0.008131729438900948, 0.009934832341969013, -0.02349640429019928, -0.08227446675300598, -0.02277502231299877, -0.028598066419363022, -0.01064562052488327, 0.007898721843957901, 0.028788700699806213, 0.08372321724891663, 0.022692102938890457, -0.03078411892056465, -0.013450926169753075, 0.06044673174619675, -0.002011153381317854, -0.01791771501302719, 0.01491617038846016, -0.03183953836560249, -0.007326486054807901, 0.09620364755392075, 0.0208867359906435, -0.017977217212319374, -0.004798286594450474, 0.05719471722841263, 0.04115556553006172, 0.05432397127151489, 0.06384225189685822, 0.019155073910951614, 0.016406623646616936, -0.06543486565351486, 0.02362019196152687, 0.0828951746225357, 0.04901379346847534, 0.07036708295345306, 0.04675877466797829, 0.052132293581962585, 0.09209498763084412, 0.10031844675540924, 0.036722149699926376, -0.014036084525287151, -0.13921673595905304, -0.01719249039888382, 0.06166847050189972, 0.025811700150370598, 0.0925988182425499, -0.011215322650969028, 0.08621996641159058, 0.11881906539201736, 0.0769508108496666, 0.0991213470697403, 0.024267707020044327, -0.21235151588916779, -0.004761493764817715, -0.014402869157493114, -2.2577267372980714e-05, 0.01644846610724926, 0.0636616200208664, -0.02950817346572876, 0.04720797762274742, -0.0066270469687879086, -0.0014645301271229982, 0.031821854412555695, -0.09120605140924454, -0.05656082183122635, -0.06585199385881424, 0.020946059376001358, 0.014550353400409222, -0.0449540801346302, 0.0600707046687603, -0.04354988783597946, 0.0399031825363636, -0.07271073758602142, 0.017006848007440567, -0.03449227288365364, -0.03438292443752289, 0.01282534096390009, -0.029399463906884193, -0.08646740019321442, -0.036583710461854935, -0.019333768635988235, 0.03819436579942703, 0.04927092790603638, -0.0002214228588854894, 0.10512275248765945, 0.013766366057097912, 0.06036000698804855, -0.016446951776742935, -0.05943119525909424, -0.06843659281730652, -0.10761592537164688, -0.05857272446155548, -0.005501741077750921, 0.04202105104923248, -0.09573674201965332, 0.04178968071937561, -0.0058510820381343365, -0.11013476550579071, 0.03016754239797592, 0.05289420112967491, -0.004791665356606245, -0.04174160957336426, -0.08626732975244522, 0.04058106243610382, -0.09266667068004608, -0.020021656528115273, 0.09053434431552887, -0.09600052982568741, -0.04427047446370125, 0.04633122682571411, -0.007062464952468872, 0.14891968667507172, 0.1042572557926178, -0.02389688231050968, -0.022213857620954514, -0.08069910854101181, 0.008250271901488304, 0.0565105639398098, -0.02839408442378044, -0.0865805521607399, -0.031912751495838165, -0.07012422382831573, 0.03326006978750229, -0.02237798646092415, -0.10322931408882141, -0.050145719200372696, -0.02220831625163555, -0.024608470499515533, 0.0036451409105211496, -0.12784390151500702, -0.1545899659395218, -0.14154388010501862, -0.12899409234523773, -0.15685147047042847, -0.09147217124700546, -0.04211784526705742, 0.022350432351231575, -0.11214153468608856, -0.05963984504342079, -0.10458452254533768, 0.04360746219754219, -0.0928521454334259, -0.10736779123544693, -0.18007530272006989, -0.11731764674186707, -0.15985992550849915, -0.12253201007843018, -0.09671357274055481, 0.020366238430142403, 0.05194344371557236, 0.0018524480983614922, -0.030700678005814552, -0.012898488901555538, -0.08219550549983978, -0.0305824913084507, -0.20259180665016174, -0.03195100277662277, -0.036085985600948334, 0.009168359450995922, -0.03022417053580284, -0.04070163890719414, -0.023729542270302773, 0.04422377794981003, -0.059024564921855927, 0.10896174609661102, -0.11388887465000153, 0.012283677235245705, -0.08542226999998093, -0.07522574812173843, -0.08321887254714966, -0.03511868789792061, -0.04388198256492615, -0.01201395969837904, 0.054683830589056015, 0.005803594831377268, -0.001929447171278298, 0.025196656584739685, -0.009747191332280636, -0.029941486194729805, -0.07873425632715225, -0.07188405841588974, -0.07017883658409119, 0.0013375231064856052, -0.06327445805072784, -0.04488113895058632, 0.009519965387880802, 0.005609543994069099, 0.03365497291088104, 0.022460905835032463, -0.06273198127746582, -0.11531056463718414, -0.022874241694808006, -0.0012290863087400794, -0.1553383618593216, -0.008618767373263836, -0.10834385454654694, -0.14691421389579773, -0.015188325196504593, -0.031223470345139503, 0.02196134440600872, 0.06862398236989975, -0.08269044756889343, -0.044265806674957275, 0.06534463912248611, -0.014859591610729694, 0.026935216039419174, -0.08050428330898285, -0.20811159908771515, -0.09710687398910522, -0.018730871379375458, 0.010060093365609646, 0.08282507956027985, -0.02473788522183895, -0.04135672003030777, -0.13316749036312103, 0.03746607527136803, -0.008049504831433296, 0.052419569343328476, 0.02915910817682743, -0.050232432782649994, 0.05162949115037918, -0.018033087253570557, -0.006713617593050003, 0.02918510138988495, -0.04781930893659592, -0.16332091391086578, -0.010679066181182861, -0.0015025653410702944, -0.022593442350625992, -0.02440750040113926, 0.030940737575292587, -0.029062995687127113, -0.018190963193774223, -0.001876966212876141, -0.051695533096790314, -0.02952633984386921, -0.11139679700136185, -0.14224039018154144, -0.10427384823560715, 0.020464248955249786, 0.027998415753245354, 0.02353276126086712, 0.04643690213561058, 0.014669335447251797, -0.06552007794380188, -0.03838464245200157, -0.10786104202270508, -0.020015805959701538, -0.11551755666732788, -0.14160865545272827, -0.04964280501008034, -0.06483795493841171, 0.003217085963115096, 0.007902403362095356, -0.07156191766262054, -0.037980444729328156, -0.0917220413684845, -0.1513935774564743, -0.1526450663805008, -0.12066195160150528, -0.06422246992588043, -0.11022086441516876, -0.09474899619817734, -0.08533158898353577, -0.008044787682592869, 0.0002499832189641893, 0.04639400169253349, 0.05791906267404556, 0.12092642486095428, 0.10710063576698303, 0.07938779890537262, -0.025151848793029785, -0.057206764817237854, -0.08953042328357697, -0.01665838621556759, 0.015432336367666721, 0.006257788278162479, 0.03630078583955765, 0.040757615119218826, 0.045838091522455215, 0.02634972520172596, 0.003447055583819747, 0.014453920535743237, 0.003915228880941868, 0.016736268997192383, -0.08674353361129761, 0.017798475921154022, 0.019522476941347122, 0.027880825102329254, 0.022312309592962265, -0.001823512138798833, 0.004444998688995838, -0.015626870095729828, -0.04158239811658859, -0.0031368895433843136, -0.04772620275616646, 0.0015218363841995597, -0.04224717244505882, -0.03297054022550583, 0.05562213435769081, -0.03069685772061348, -0.01464865729212761, 0.02265012077987194, -0.030349353328347206, -0.06510502845048904, -0.018683193251490593, 0.0017959425458684564, -0.04269923269748688, 0.027528906241059303, -0.021847177296876907, -0.0067683118395507336, 0.004322228021919727, -0.026393679901957512, -0.028899287804961205, 0.00402853824198246, 0.00789482332766056, -0.006733295042067766, -0.005407067947089672, -0.035696595907211304, -0.03235121816396713, -0.02942945621907711, -0.07178398221731186, -0.014655276201665401, -0.005922180600464344, -0.02003489062190056, -0.0023443750105798244, -0.004051725380122662, 0.07284624129533768, 0.11431118845939636, 0.04956049472093582, -0.006066733505576849, -0.014828724786639214, -0.05269726738333702, -0.045212481170892715, -0.02078949473798275, -0.07163365930318832, -0.0709996297955513, -0.041214242577552795, 0.047093018889427185, 0.1470928192138672, 0.18505923449993134, 0.0071077244356274605, -0.003468792187049985, -0.030710116028785706, -0.04233995079994202, -0.024578673765063286, -0.0678640678524971, -0.030884692445397377, -0.06162376329302788, -0.016107676550745964, 0.040395598858594894, 0.11762361228466034, 0.067240871489048, 0.05154316872358322, -0.006317140068858862, -0.041441820561885834, -0.021252864971756935, 0.029757633805274963, -0.01939309388399124, -0.027598941698670387, -0.016835475340485573, -0.019724644720554352, 0.04886961728334427, 0.021141722798347473, 0.05794577673077583, 0.013450384140014648, 0.025747455656528473, 0.01575355976819992, -0.018794069066643715, -0.01307645719498396, -0.015127506107091904, -0.014601257629692554, -0.018337782472372055, -0.028166556730866432, -0.035727739334106445, 0.018518202006816864, 0.004222308751195669, 0.06348826736211777, 0.021747315302491188, 0.02610909193754196, 0.022919626906514168, -0.04232342913746834, 0.03171471878886223, -0.04165702685713768, -0.04424212500452995, 0.02625829353928566, 0.010615312494337559, 0.034929633140563965, 0.048041533678770065, 0.09306558221578598, 0.06413287669420242, 0.034360770136117935, 0.07492855191230774, -0.09744969010353088, -0.04375099390745163, -0.009061631746590137, -0.005295363254845142, 0.0656951442360878, 0.08161075413227081, 0.07224313169717789, 0.17020082473754883, 0.1412622332572937, 0.1022302657365799, 0.02995167300105095, -0.01708458922803402, -0.08509302139282227, -0.05854039639234543, -0.05512995645403862, -0.08300196379423141, -0.017451291903853416, 0.07239919155836105, 0.027120094746351242, 0.0001633648935239762, -0.009127059951424599, -0.03354137763381004, 0.004943008068948984, -0.005079502705484629, -0.06343694776296616, 0.18337693810462952, 0.10863783210515976, 0.005022622179239988, -0.007382157724350691, -0.024080457165837288, -0.01707371138036251, -0.04273300617933273, -0.06205859035253525, 0.018021194264292717, 0.014183636754751205, 0.10171772539615631, 0.1019100472331047, 0.039115581661462784, -0.02705579437315464, -0.00022145082766655833, -0.019377170130610466, -0.11307550966739655, -0.043868228793144226, 0.02118188887834549, -0.02936379797756672, -0.0014357217587530613, -0.003683623392134905, 0.07240704447031021, 0.10654181241989136, 0.19854716956615448, 0.005013653542846441, -0.04076065868139267, 0.02975660003721714, 0.04630809649825096, 0.05287625268101692, -0.00020628728088922799, 0.03875994682312012, 0.0210961252450943, 0.0027079428546130657, 0.0066496883518993855, -0.054864607751369476, 0.09645842760801315, -0.04046859219670296, -0.047837499529123306, -0.0061866240575909615, -0.009919434785842896, -0.10522199422121048, -0.09059964865446091, -0.03942937031388283, -0.029363179579377174, 0.02246559038758278, -0.04189910367131233, -0.012651355005800724, 0.056530602276325226, -0.08642957359552383, -0.05060085281729698, -0.058215294033288956, -0.11966070532798767, -0.06076138839125633, -0.024330532178282738, -0.06577490270137787, -0.04030797630548477, -0.15039563179016113, -0.07876349985599518, -0.019277412444353104, 0.07561743259429932, -0.12008554488420486, -0.18445396423339844, -0.13291360437870026, -0.06585537642240524, -0.1469639539718628, -0.03688953444361687, -0.07317864149808884, -0.07955542951822281, -0.0964747965335846, -0.2060428410768509, -0.12630696594715118, 0.037903934717178345, -0.08709382265806198, -0.11050528287887573, -0.09964949637651443, -0.012370487675070763, -0.02325752191245556, -0.03120674379169941, -0.018262645229697227, -0.061981480568647385, -0.0516212061047554, -0.09879850596189499, -0.11374634504318237, -0.05053168907761574, -0.010713319294154644, -0.08422326296567917, -0.04975198954343796, 0.03132518380880356, -0.013073641806840897, 0.042617958039045334, 0.068365179002285, 0.007864386774599552, -0.012591149657964706, -0.02098211459815502, -0.09239369630813599, -0.07579395174980164, -0.03763486444950104, -0.06488195061683655, -0.03960243985056877, -0.040409501641988754, 0.018553653731942177, 0.05938925966620445, 0.08792110532522202, 0.006967994850128889, -0.06194145232439041, 0.0803193598985672, -0.1098766177892685, 0.042252443730831146, 0.012416953220963478, -0.018932929262518883, 0.01083308830857277, 0.027569305151700974, 0.05493589863181114, 0.05955306068062782, 0.051554709672927856, -0.0018281519878655672, 0.025495439767837524, -0.004878339357674122, -0.1446501761674881, -0.07073305547237396, -0.006620308849960566, 0.07024689763784409, 0.1060391366481781, 0.04972432926297188, 0.08076278865337372, 0.1017572283744812, 0.08414790034294128, 0.018289655447006226, 0.0009174830629490316, -0.0016142482636496425, -0.04666127264499664, -0.08740560710430145, -0.08036485314369202, -0.002371341921389103, -0.07161561399698257, -0.04574081301689148, 0.02848493494093418, 0.008579757995903492, -0.10653287172317505, -0.07688958942890167, -0.12736624479293823, -0.03243523836135864, -0.09468621760606766, -0.10539345443248749, -0.17872588336467743, -0.02621220424771309, -0.04759884998202324, -0.011743847280740738, 0.013322078622877598, 0.023070387542247772, -0.03496576100587845, 0.07093153893947601, -0.0036787642166018486, 0.036004140973091125, 0.006677597761154175, -0.043831486254930496, -0.030592696741223335, -0.06521978974342346, 0.048925720155239105, 0.005273004528135061, -0.022278698161244392, 0.004335768520832062, 0.05759422481060028, 0.04299575835466385, 0.02277539111673832, 0.079029381275177, 0.03003896027803421, -0.10029870271682739, 0.0815373957157135, -0.01590670458972454, -0.02632901445031166, -0.05837436392903328, 0.01557324267923832, 0.008002467453479767, 0.030327336862683296, 0.03824629634618759, 0.049780238419771194, 0.06553266942501068, 0.016219936311244965, -0.02400042675435543, 0.05751451477408409, 0.034840572625398636, -0.09935656934976578, 0.03948428854346275, -0.012877194210886955, -0.06217961385846138, 0.007170770317316055, 0.0980776846408844, 0.09206891059875488, 0.11618807166814804, 0.046107687056064606, -0.04709692299365997, 0.027348892763257027, -0.02289266139268875, 0.0712803453207016, 0.03303953632712364, -0.01630030944943428, 0.14243365824222565, 0.03271012380719185, 0.0247699823230505, 0.02783936634659767, 0.04865820333361626, 0.07292100787162781, 0.057851504534482956, 0.048325035721063614, 0.041463110595941544, 0.021168895065784454, 0.11140454560518265, 0.12042712420225143, 0.08936834335327148, 0.10325457155704498, 0.050729651004076004, -0.050374869257211685, -0.02202805131673813, 0.09032303839921951, 0.04871385917067528, -0.0263607669621706, 0.051039449870586395, 0.0749259889125824, 0.11882200837135315, 0.21310794353485107, 0.022018570452928543, -0.01936575025320053, -0.06456149369478226, -0.08435456454753876, -0.005139535758644342, 0.03993695601820946, 0.019037900492548943, 0.019045911729335785, 0.006625932641327381, 0.10541025549173355, 0.06086379662156105, 0.06470998376607895, -0.12042722851037979, -0.10515660792589188, -0.07027924805879593, -0.11730406433343887, -0.07614137977361679, 0.039242591708898544, 0.09246578812599182, -0.005250618327409029, -0.015070087276399136, 0.04913441091775894, 0.06716959178447723, -0.10585606098175049, -0.10696001350879669, -0.05213867872953415, -0.10422626882791519, -0.07017116248607635, -0.07182373106479645, -0.06624720990657806, -0.03996787592768669, 0.09509572386741638, 0.002288282848894596, 0.015650564804673195, 0.011738663539290428, 0.0013450435362756252, -0.09089342504739761, -0.10332886874675751, -0.12968780100345612, -0.19004583358764648, -0.1273244023323059, -0.12160257250070572, -0.038426872342824936, -0.031980887055397034, -0.004779906012117863, -0.027131961658596992, 0.029909595847129822, -0.027211785316467285, -0.1563618779182434, -0.10967337340116501, -0.019187990576028824, -0.08096098899841309, -0.1511380821466446, -0.16017457842826843, -0.08722583204507828, -0.1261487454175949, -0.11754096299409866, -0.11365693807601929, -0.13624407351016998, -0.12038138508796692, -0.08303647488355637, -0.19072452187538147, -0.12829886376857758, 0.03612766042351723, -0.06031564995646477, -0.09748168289661407, -0.16581173241138458, -0.08657151460647583, -0.06635184586048126, -0.09356195479631424, -0.12707264721393585, -0.039447177201509476, -0.07474768161773682, -0.1343337446451187, -0.032084960490465164, 0.035873714834451675, 0.025114651769399643, -0.05924476310610771, -0.17246656119823456, -0.053988266736269, -0.10073414444923401, -0.04532347247004509, -0.037862569093704224, -0.08007007837295532, -0.03080969676375389, -0.04022202268242836, -0.059488825500011444, -0.011944354511797428, 0.0023532272316515446, 0.015596073120832443, -0.09691482782363892, -0.04862849786877632, -0.026214808225631714, -0.04955349117517471, -0.04061653092503548, -0.134739488363266, 0.03152024745941162, -0.013154882937669754, 0.01221309695392847, -0.0008271473343484104, -0.010307678952813148, -0.09002790600061417, -0.05807654187083244, 0.011455846019089222, -0.002297974657267332, -0.009889298118650913, -0.0201429333537817, -0.06595451384782791, -0.025650685653090477, 0.040445249527692795, 0.023597726598381996, 0.05518358200788498, 0.029974818229675293, -0.05516265705227852, -0.004399449098855257, 0.05824862793087959, 0.009465469978749752, 0.042669449001550674, 0.008161280304193497, -0.06313247233629227, -0.04962329566478729, 0.045872848480939865, 0.05092652142047882, 0.08575621992349625, 0.05217695236206055, 0.026156488806009293, -0.017713380977511406, 0.07374227046966553, 0.03229468688368797, 0.023788174614310265, 0.03446400910615921, -0.1445794403553009, -0.24901655316352844, 0.02492872066795826, 0.07488436251878738, 0.010175265371799469, 0.056769803166389465, 0.05872999131679535, 0.03196483850479126, 0.03691805526614189, 0.021837443113327026, 0.048126593232154846, -0.0461910255253315, -0.0803244560956955, -0.11998366564512253, -0.08318892121315002, 0.06390416622161865, -0.06955743581056595, -0.0008053019409999251, 0.014828129671514034, -0.02586008422076702, 9.307776053901762e-06, -0.04049403592944145, 0.04289882630109787, 0.012398974038660526, -0.0700954794883728, -0.0022352205123752356, -0.036817073822021484, -0.013803566806018353, -0.020698705688118935, -0.0925859659910202, 0.023864641785621643, 0.01114165224134922, 0.010117730125784874, -0.024931803345680237, -0.02990017458796501, 0.08047566562891006, -0.13608522713184357, -0.14955386519432068, -0.23011064529418945, -0.0922689437866211, -0.08322768658399582, -0.11224464327096939, -0.02546532265841961, -0.08050502091646194, 0.019172722473740578, -0.0026802243664860725, -0.030949469655752182, 0.03519361466169357, -0.14965039491653442, -0.3469577133655548, -0.2490493506193161, -0.14057879149913788, -0.20588013529777527, -0.21455878019332886, -0.08036590367555618, -0.05123754218220711, -0.0004474456363823265, -0.024108171463012695, -0.140244260430336, -0.19845058023929596, -0.2677318751811981, -0.25625112652778625, -0.1920464038848877, -0.22153596580028534, -0.16671442985534668, -0.13809385895729065, -0.07811753451824188, 0.013101569376885891, 0.0019761426374316216, -0.029834169894456863, -0.09395870566368103, -0.05504012852907181, -0.10198017954826355, -0.12098440527915955, -0.1322486698627472, -0.13759194314479828, -0.033061861991882324, -0.03326141834259033, 0.010497461073100567, -0.04321705549955368, -0.08567740768194199, -0.0058541735634207726, -0.02604486793279648, -0.06534301489591599, -0.06546540558338165, -0.04134080186486244, -0.0721357986330986, -0.019987918436527252, -0.010032282210886478, 0.024627357721328735, 0.02901592291891575, 0.0036727713886648417, -0.08450179547071457, -0.01221882551908493, 0.0013043582439422607, -0.02547117881476879, 0.032091207802295685, -0.02720504067838192, -0.015626762062311172, 0.04868842661380768, 0.027813097462058067, 0.04033941030502319, 0.06586676836013794, 0.016855480149388313, -0.050345659255981445, -0.01033827569335699, 0.008641506545245647, 0.016728736460208893, 0.0010111323790624738, 0.002031619194895029, 0.0478752925992012, 0.00106683315243572, 0.034738291054964066, 0.06626393646001816, -0.03278491646051407, -0.01217374112457037, -0.012339825741946697, 0.009463896043598652, 0.03352854400873184, -0.006645665969699621, 0.056631073355674744, 0.05067618563771248, -0.009387009777128696, -0.007386424113065004, 0.041540250182151794, 0.057187799364328384, 0.05349614843726158, 0.006327802315354347, -0.028809331357479095, 0.04212538152933121, 0.014578182250261307, 0.02320977672934532, 0.054733749479055405, -0.06298289448022842, -0.10028941184282303, 0.002351268194615841, 0.01768764667212963, 0.07000044733285904, 0.0625443086028099, 0.005859021563082933, 0.019395649433135986, 0.03427962213754654, 0.06717990338802338, 0.010785347782075405, -0.057579509913921356, -0.20973822474479675, -0.10557185858488083, -0.027102170512080193, 0.04022630676627159, 0.020227381959557533, 0.003944030962884426, -0.0028359645511955023, 0.0272663664072752, 0.041640281677246094, 0.035666532814502716, 0.049089688807725906, -0.12285561114549637, -0.15957361459732056, -0.07183869183063507, -0.0020646562334150076, 0.016347277909517288, 0.022937491536140442, 0.017967084422707558, 0.02580167166888714, 0.03684298321604729, 0.0006598085747100413, 0.027361156418919563, -0.011413626372814178, -0.06971509754657745, -0.049799639731645584, -0.002812307793647051, -0.027767885476350784, -0.046096496284008026, -0.01718951389193535, -0.0414787195622921, -0.03056700900197029, 0.004808737430721521, -0.0003549219109117985, 0.057684704661369324, 0.03047322854399681, 0.023991523310542107, -0.026348331943154335, 0.00763545511290431, -0.07163407653570175, -0.028576785698533058, -0.026275692507624626, -0.1099991723895073, -0.013422766700387001, -0.03664030879735947, 0.011540492996573448, -0.02677374891936779, -6.016837141942233e-05, -0.009877922013401985, -0.043291766196489334, -0.09058935940265656, -0.014304686337709427, -0.06496352702379227, -0.06319526582956314, -0.1227947399020195, 0.05145873501896858, 0.0025986842811107635, -0.011337196454405785, 0.0030322852544486523, -0.04743168503046036, 0.002761456184089184, -0.06275223195552826, -0.06294302642345428, -0.1303192675113678, -0.1254447102546692, -0.0766623243689537, -0.012939557433128357], [-0.07141628861427307, -0.11858835816383362, -0.040095362812280655, -0.057151250541210175, 0.05608731135725975, -0.15795478224754333, -0.12482386082410812, -0.12901410460472107, -0.10003762692213058, 0.04344822093844414, -0.09606295824050903, -0.12285784631967545, 0.00282474746927619, -0.02547636814415455, -0.15783081948757172, 0.0593591183423996, -0.03106788359582424, -0.005011883098632097, -0.09770684689283371, -0.0012520508607849479, -0.0444868765771389, 0.0204154122620821, -0.026418445631861687, -0.054860807955265045, -0.1159897968173027, 0.01768246851861477, -0.006486726459115744, 0.0897078663110733, -0.016607124358415604, -0.02891179919242859, -0.03867006301879883, -0.1074947640299797, -0.1851571649312973, -0.12573103606700897, -0.14177682995796204, -0.17803514003753662, -0.03452678024768829, -0.04799829050898552, -0.05506791174411774, -0.0829525962471962, 0.013956922106444836, -0.004975978285074234, 0.01109034102410078, -0.061591967940330505, -0.1352206915616989, -0.10849662125110626, -0.09308737516403198, -0.23334352672100067, -0.0062683504074811935, -0.23999041318893433, -0.07581426948308945, 0.054210443049669266, 0.004008331801742315, 0.02359843999147415, -0.00632562255486846, -0.04827575013041496, -0.02450956217944622, -0.10385742783546448, 0.009695975109934807, -0.02867087349295616, -0.0787387415766716, -0.058405760675668716, -0.17109191417694092, -0.10337953269481659, -0.022858314216136932, 0.010344413109123707, 0.013593449257314205, -0.03454286977648735, -0.1093309298157692, -0.11068175733089447, -0.027493581175804138, -0.03234989568591118, -0.09620002657175064, -0.15268740057945251, -0.0644621029496193, -0.13432925939559937, -0.10675163567066193, 0.03772075101733208, -0.019344313070178032, -0.11838896572589874, -0.20475590229034424, -0.07430075109004974, -0.06162896007299423, 0.00043390432256273925, -0.24286796152591705, -0.06744781881570816, -0.12618467211723328, -0.0794057548046112, -0.028902657330036163, 0.0744764432311058, -0.046192534267902374, -0.24277082085609436, -0.17300255596637726, -0.09434851258993149, -0.016682958230376244, -0.010726943612098694, -0.21120356023311615, -0.08346831798553467, -0.10271789878606796, -0.03364896401762962, -0.08497419953346252, -0.09451086819171906, -0.028009813278913498, -0.09249814599752426, 0.055743906646966934, 0.04128723219037056, 0.041280634701251984, -0.011736730113625526, -0.06070687621831894, 0.007456186227500439, 0.03150947764515877, 0.054145149886608124, 0.015387906692922115, 0.005204747896641493, 0.02899956703186035, 0.11625071614980698, 0.1213134303689003, 0.12062948942184448, 0.049971532076597214, -0.0045659770257771015, -0.17493923008441925, -0.011631659232079983, 0.005754064302891493, -0.026027236133813858, -0.011114905588328838, 0.036945972591638565, 0.032132118940353394, 0.07227618247270584, 0.0747726559638977, 0.007307846564799547, -0.0765739232301712, 0.04980242997407913, -0.07686713337898254, -0.13716347515583038, -0.04592517390847206, -0.06174406781792641, -0.06964399665594101, -0.04610136151313782, -0.10664117336273193, -0.12735044956207275, -0.036315374076366425, -0.13124839961528778, -0.16596531867980957, -0.1288045346736908, -0.02139212377369404, -0.08442547917366028, -0.13257524371147156, -0.08882982283830643, -0.10682223737239838, 0.05277412012219429, 0.0578862801194191, 0.027042679488658905, -0.02208864875137806, -0.16278252005577087, -0.13179562985897064, -0.15976166725158691, -0.02861100435256958, -0.016544660553336143, -0.06785215437412262, -0.07573879510164261, 0.04197622090578079, 0.05328734964132309, 0.0056741065345704556, -0.027018286287784576, 0.05275851860642433, 0.01092956680804491, -0.06522833555936813, -0.17632469534873962, -0.1522611677646637, -0.1007775291800499, -0.13766011595726013, -0.037219900637865067, -0.021917160600423813, 0.016041722148656845, 0.02417892962694168, 0.09475937485694885, 0.11954699456691742, 0.0387372151017189, -0.08735205233097076, -0.16405454277992249, -0.03248240798711777, 0.02406131476163864, -0.07644550502300262, -0.03918043524026871, -0.04575708508491516, -0.017629632726311684, 0.07730752229690552, 0.08819936215877533, 0.10876523703336716, 0.03685065731406212, -0.0016755349934101105, 0.014258177950978279, -0.027217671275138855, -0.00777866505086422, -0.06703714281320572, 0.05531984195113182, 0.018649732694029808, 0.051144469529390335, 0.11174885183572769, -0.022530294954776764, 0.04689536988735199, 0.0633712112903595, 0.10874477028846741, 0.03645547851920128, -0.022369729354977608, 0.02668050490319729, -0.08168886601924896, 0.040251750499010086, 0.007364457938820124, 0.054438285529613495, 0.0011220728047192097, 0.001882406766526401, 0.028468919917941093, 0.012065629474818707, 0.07736120373010635, 0.00602252222597599, -0.17807245254516602, -0.12529852986335754, 0.005489468574523926, 0.03288688138127327, 0.10397269576787949, -0.03389756381511688, -0.027535423636436462, 0.003248013323172927, -0.07114623486995697, -0.08452525734901428, -0.06800194829702377, -0.09923060983419418, -0.1739327758550644, -0.15444399416446686, -0.03859937563538551, 0.07745598256587982, -0.004969684407114983, -0.02840772271156311, 0.02675968036055565, 0.11909134685993195, 0.03182777389883995, -0.0813271552324295, 0.029763730242848396, -0.07473810762166977, -0.2521149218082428, -0.034627750515937805, 0.11524296551942825, 0.02277255989611149, 0.04328005015850067, 0.08419110625982285, 0.0026973239146173, -0.15454164147377014, -0.06012382358312607, 0.079776830971241, 0.0021978141739964485, 0.04321333393454552, -0.08293823897838593, 0.11679060757160187, 0.06714522838592529, 0.07797582447528839, 0.09592057764530182, 0.025915594771504402, -0.21375884115695953, -0.11958765238523483, -0.0583249032497406, -0.038998402655124664, 0.05102714151144028, 0.05614585429430008, -0.04397018253803253, -0.04111787676811218, 0.091478630900383, 0.10640798509120941, 0.018794400617480278, -0.09949801862239838, -0.0249391607940197, -0.006761593744158745, 0.019855979830026627, 0.09927979856729507, -0.005348969250917435, 0.015599580481648445, -0.1535792201757431, -0.0006482134922407568, 0.0026045378763228655, -0.08138272911310196, 0.04050222039222717, -0.01582256145775318, 0.04526563361287117, -0.035903848707675934, -0.04926556721329689, -0.04598282277584076, -0.09534347057342529, -0.1267482042312622, 0.12716589868068695, 0.1351294368505478, 0.08086764067411423, 0.10284528136253357, 0.053275346755981445, 0.07389525324106216, 0.09970059245824814, 0.15907201170921326, 0.07826119661331177, -0.022308923304080963, 0.13569115102291107, 0.12494134902954102, -0.05865747109055519, 0.0062049091793596745, 0.10898267477750778, -0.10581375658512115, 0.034901589155197144, -0.03909143805503845, -0.005276137497276068, 0.012408499605953693, 0.07779727876186371, 0.0979219526052475, 0.04635891318321228, 0.05216800794005394, 0.09383829683065414, 0.11523807793855667, -0.10321810841560364, -0.001175445388071239, 0.08626286685466766, 0.06315494328737259, 0.1353953331708908, 0.058340687304735184, 0.10169913619756699, 0.07047541439533234, 0.1049947664141655, 0.07974375039339066, 0.050838403403759, -0.03365244343876839, -0.04002024978399277, 0.014605190604925156, 0.13902895152568817, 0.04729476198554039, 0.04432014375925064, 0.04942293092608452, 0.018417343497276306, 0.07630416005849838, -0.02264678291976452, 0.24606555700302124, 0.1807318776845932, 0.032210759818553925, 0.17326445877552032, 0.01568423956632614, 0.04065841808915138, -0.0457821786403656, 0.07208207249641418, 0.09589658677577972, -0.03178126737475395, 